tree
version=v4
num_class=1
num_tree_per_iteration=1
label_index=0
max_feature_idx=275
objective=binary sigmoid:1
feature_names=Age Tenure no_wire_trxns_sent wire_total_amnt_sent no_international_wire_trxns_sent no_wire_trxns_received wire_total_amnt_received no_international_wire_trxns_received no_emt_trxns_sent emt_total_amnt_sent no_emt_trxns_received emt_total_amnt_received no_cash_deposits total_cash_deposit no_cash_withdraws total_cash_withdraw total_international_trxns total_no_wire_trxns total_no_emt_trxns total_no_cash_trxns wire_trxn_balance emt_trxn_balance cash_balance Gender_female Gender_male Gender_other Occupation_Actor Occupation_Actuary Occupation_Anesthesiologist Occupation_AnimalTrainer Occupation_AntiqueDealer Occupation_AntiquesDealer Occupation_Arborist Occupation_Archaeologist Occupation_Architect Occupation_ArtCritic Occupation_ArtDealer Occupation_ArtGalleryOwner Occupation_ArtHistorian Occupation_Artist Occupation_Astronomer Occupation_Astrophysicist Occupation_Auctioneer Occupation_Author Occupation_AutoDealer Occupation_Baker Occupation_Banker Occupation_Barista Occupation_Bartender Occupation_Beekeeper Occupation_Bioengineer Occupation_Biologist Occupation_BookEditor Occupation_Brewer Occupation_BusDriver Occupation_BusinessOwner Occupation_Butcher Occupation_CallCenterRepresentative Occupation_CarDealershipOwner Occupation_Carpenter Occupation_Cartographer Occupation_Cartoonist Occupation_CashintensiveBusinessOwneregLaundromat Occupation_Cashier Occupation_CasinoOperator Occupation_Ceramicist Occupation_Chef Occupation_Chemist Occupation_ChildcareWorker Occupation_Chiropractor Occupation_Choreographer Occupation_Cicerone Occupation_CivilServant Occupation_Cleaner Occupation_CoffeeRoaster Occupation_ComicBookArtist Occupation_CommodityBroker Occupation_ConstructionContractor Occupation_ConstructionWorker Occupation_CorporateExecutive Occupation_Cryoseismologist Occupation_CryptocurrencyTrader Occupation_Curator Occupation_CurrencyExchangeOwner Occupation_DJ Occupation_Dendrochronologist Occupation_Dentist Occupation_Dietician Occupation_Distiller Occupation_Doctor Occupation_Economist Occupation_Egyptologist Occupation_Electrician Occupation_Engineer Occupation_Enologist Occupation_Entomologist Occupation_EnvironmentalScientist Occupation_Ethnobotanist Occupation_Ethnomusicologist Occupation_EventPlanner Occupation_FactoryWorker Occupation_FarmLaborer Occupation_Farmer Occupation_FashionDesigner Occupation_FastFoodWorker Occupation_FilmEditor Occupation_Filmmaker Occupation_FinancialAdvisor Occupation_Firefighter Occupation_Fisherman Occupation_FitnessTrainer Occupation_FlightAttendant Occupation_Florist Occupation_FoodCritic Occupation_FoodScientist Occupation_Forester Occupation_FreeTradeZoneOperator Occupation_FreelanceregGraphicDesignerWriter Occupation_GameDeveloper Occupation_Gardener Occupation_Gemologist Occupation_Geologist Occupation_Glaciologist Occupation_GraphicArtist Occupation_Graphologist Occupation_GroceryStoreClerk Occupation_Hairstylist Occupation_HedgeFundManager Occupation_Herpetologist Occupation_HighEndRealEstateDeveloper Occupation_Historian Occupation_HomeHealthAide Occupation_Hotelier Occupation_Hydrologist Occupation_Ichthyologist Occupation_Illustrator Occupation_ImportExportBusinessOwner Occupation_ImportExportDealer Occupation_InteriorDesigner Occupation_InternationalConsultant Occupation_InternationalSalesperson Occupation_JewelryDealer Occupation_Journalist Occupation_Kinesiologist Occupation_Landlord Occupation_Landscaper Occupation_Lawyer Occupation_Lepidopterist Occupation_Librarian Occupation_LibrarianAssistant Occupation_Librettist Occupation_Lifeguard Occupation_Limnologist Occupation_Linguist Occupation_LiteraryCritic Occupation_LoanorFinanceCompanyOwner Occupation_LocalFairOperator Occupation_LocalRadioOperator Occupation_Luthier Occupation_LuxuryGoodsDealeregArtJewelry Occupation_LuxuryYachtBroker Occupation_MakeupArtist Occupation_Malacologist Occupation_MarineBiologist Occupation_MarineEngineer Occupation_MaritimeorShippingAgent Occupation_MassageTherapist Occupation_Mechanic Occupation_Meteorologist Occupation_Miner Occupation_MoneyServiceBusinessOwner Occupation_MusicProducer Occupation_Musician Occupation_Mycologist Occupation_Nanny Occupation_Nematologist Occupation_NewsAnchor Occupation_NightcluborBarOwner Occupation_NonprofitOrganizationDirector Occupation_NotaryPublic Occupation_Numismatist Occupation_Nurse Occupation_Nutritionist Occupation_Oceanographer Occupation_OffshoreInvestmentAdvisor Occupation_OffshoreTrustee Occupation_OnlineGamblingSiteOperator Occupation_Optometrist Occupation_Ornithologist Occupation_Osteologist Occupation_Other Occupation_Paleontologist Occupation_Paramedic Occupation_PastryChef Occupation_PawnShopOwner Occupation_PaymentProcessorsOwner Occupation_Pediatrician Occupation_Pedologist Occupation_PetGroomer Occupation_Pharmacist Occupation_Philatelist Occupation_Photographer Occupation_PhysicalTherapist Occupation_Physicist Occupation_Pilot Occupation_Plumber Occupation_PoliceOfficer Occupation_PoliticalScientist Occupation_PostalWorker Occupation_PreciousMetalsDealer Occupation_Printmaker Occupation_PrivateBanker Occupation_PrivateEquityFundManager Occupation_PrivateJetBroker Occupation_PrivateSecurityCompanyOwner Occupation_PrivateTutor Occupation_PropertyManager Occupation_Psychologist Occupation_RadioHost Occupation_Radiologist Occupation_RealEstateAgent Occupation_RealEstateBroker Occupation_Receptionist Occupation_ResearchScientist Occupation_RetailSalesperson Occupation_Retired Occupation_SchoolBusDriver Occupation_SchoolTeacher Occupation_Sculptor Occupation_SecurityGuard Occupation_Seismologist Occupation_Semiotician Occupation_SetDesigner Occupation_ShellCompanyOperator Occupation_Sinologist Occupation_SocialWorker Occupation_Sociologist Occupation_SoftwareDeveloper Occupation_Sommelier Occupation_SoundEngineer Occupation_SportsAgent Occupation_Statistician Occupation_StockBroker Occupation_Student Occupation_Surgeon Occupation_Surveyor Occupation_TVProducer Occupation_Tailor Occupation_TattooArtist Occupation_TaxAdvisor Occupation_TaxiDriver Occupation_Telemarketer Occupation_TheaterDirector Occupation_Therapist Occupation_TourGuide Occupation_Translator Occupation_TravelAgencyOwner Occupation_TravelAgent Occupation_TrustandCompanyServiceProvider Occupation_Unemployed Occupation_UniversityProfessor Occupation_Unknown Occupation_UrbanPlanner Occupation_VentureCapitalist Occupation_Veterinarian Occupation_VeterinarianAssistant Occupation_Vexillologist Occupation_Videographer Occupation_VirtualAssetServiceProviders Occupation_VoiceActor Occupation_Volcanologist Occupation_WaiterWaitress Occupation_WarehouseWorker Occupation_WeddingPlanner Occupation_WindowCleaner Occupation_Zookeeper
feature_infos=[18:91] [0:43] [0:10] [0:491024] [0:3] [0:10] [0:421379] [0:4] [0:20] [0:37791] [0:20] [0:39024.5] [0:29] [0:281675] [0:16] [0:97475] [0:7] [0:14] [0:35] [0:36] [-491024:380193] [-35719:35481] [-57760:281675] [0:1] [0:1] [0:1] none none none none [0:1] [0:1] none none [0:1] [0:1] [0:1] [0:1] none none none none [0:1] none [0:1] [0:1] [0:1] [0:1] [0:1] none none [0:1] none [0:1] [0:1] [0:1] [0:1] [0:1] [0:1] [0:1] [0:1] none [0:1] [0:1] [0:1] none [0:1] [0:1] [0:1] [0:1] [0:1] none [0:1] [0:1] none [0:1] [0:1] [0:1] [0:1] none none [0:1] none [0:1] none none [0:1] [0:1] none [0:1] none none [0:1] [0:1] none none [0:1] none none [0:1] [0:1] [0:1] none none [0:1] none none [0:1] none none [0:1] none none none none [0:1] [0:1] [0:1] [0:1] [0:1] none none none [0:1] none [0:1] [0:1] [0:1] none [0:1] [0:1] [0:1] [0:1] none none none [0:1] [0:1] none [0:1] [0:1] [0:1] [0:1] none [0:1] [0:1] [0:1] none [0:1] [0:1] none none none none none [0:1] [0:1] none none [0:1] [0:1] none none none none [0:1] [0:1] [0:1] [0:1] [0:1] [0:1] [0:1] [0:1] none [0:1] none [0:1] [0:1] [0:1] [0:1] none [0:1] [0:1] none [0:1] [0:1] [0:1] [0:1] none none [0:1] none [0:1] [0:1] [0:1] [0:1] [0:1] none [0:1] [0:1] none [0:1] [0:1] [0:1] none [0:1] [0:1] [0:1] [0:1] [0:1] none [0:1] [0:1] [0:1] [0:1] [0:1] [0:1] [0:1] none [0:1] [0:1] [0:1] [0:1] [0:1] [0:1] [0:1] [0:1] [0:1] none [0:1] none none none [0:1] none [0:1] [0:1] [0:1] none [0:1] [0:1] none [0:1] [0:1] [0:1] [0:1] none none [0:1] [0:1] [0:1] [0:1] [0:1] [0:1] none [0:1] [0:1] [0:1] [0:1] [0:1] [0:1] [0:1] [0:1] [0:1] [0:1] [0:1] none none [0:1] none none [0:1] [0:1] [0:1] [0:1] none
tree_sizes=3055 3365 3358 3373 3375 3368 3377 3392 3381 3392 3388 3389 3396 3389 3434 3430 3450 3417 3424 3471 3441 3448 3426 3425 3416 3429 3458 3458 3455 3511 3497 3503 3520 3477 3483 3512 3484 3457 3522 3487 3470 3496 3446 3453 3464 3464 3516 3494 3502 3499 3474 3478 3504 3465 3449 3433 3453 3480 3411 3452 3442 3436 3466 3419 3409 3430 3453 3406 3416 3397 3453 3463 3401 3482 3416 3443 3397 3432 3425 3394 3442 3449 3407 3426 3461 3463 3387 3447 3404 3420 3399 3477 3411 3405 3409 3418 3396 3455 3392 3385

Tree=0
num_leaves=31
num_cat=0
split_feature=17 19 18 11 58 18 0 19 19 15 11 17 1 11 15 19 9 18 13 15 3 18 20 9 11 9 12 18 20 0
split_gain=4351.33 1227.8 178.341 149.425 53.705 51.4012 42.8025 41.6848 38.1872 26.997 23.2826 21.7116 17.4609 15.6228 14.4111 19.8811 21.9703 13.9929 14.9087 23.0504 13.6994 12.984 26.2648 11.7098 11.0617 10.5568 10.5217 10.424 9.95488 9.88472
threshold=1.5000000000000002 5.5000000000000009 6.5000000000000009 1294.0000000000002 1.0000000180025095e-35 6.5000000000000009 42.500000000000007 6.5000000000000009 11.500000000000002 5175.0000000000009 6121.5000000000009 3.5000000000000004 13.500000000000002 8772.2500000000018 9160.0000000000018 1.0000000180025095e-35 263.50000000000006 4.5000000000000009 26202.500000000004 13687.500000000002 3292.5000000000005 13.500000000000002 12068.250000000002 2514.2500000000005 6837.5000000000009 6789.0000000000009 3.5000000000000004 1.5000000000000002 -715.99999999999989 40.500000000000007
decision_type=2 2 2 2 2 2 2 2 2 2 2 2 2 2 2 2 2 2 2 2 2 2 2 2 2 2 2 2 2 2
left_child=1 3 7 4 6 10 9 11 17 23 12 27 29 -7 15 16 -8 18 19 26 21 22 25 -1 -19 -4 -3 -2 -29 -5
right_child=2 8 20 5 -6 13 14 -9 -10 -11 -12 -13 -14 -15 -16 -17 -18 24 -20 -21 -22 -23 -24 -25 -26 -27 -28 28 -30 -31
leaf_value=-0.1738994692475804 -0.12173913043478263 0.043478260869565202 0.007407407407407406 -0.14801444043321299 0.16190476190476191 -0.011382113821138212 -0.1328125 0.13277310924369748 0.16345679012345682 -0.029629629629629631 0.095652173913043481 0.11020408163265305 -0.023376623376623377 0.13142857142857142 0.036363636363636369 -0.17066666666666669 -0.058620689655172413 0.017283950617283949 0.15294117647058825 0.14399999999999999 0.18554761008656381 0.17310924369747901 0.16904761904761906 -0.087500000000000008 0.15555555555555556 0.16363636363636366 -0.14782608695652172 0.063829787234042576 -0.044628099173553717 -0.078260869565217397
leaf_weight=800.75 11.499999999999998 5.7500000000000018 20.250000000000004 69.25 5.2499999999999991 61.5 128 29.75 101.25 13.499999999999998 5.7499999999999991 12.249999999999998 19.25 8.7499999999999982 5.4999999999999991 75 58 40.5 34 12.499999999999998 664.25 148.75 42 15.999999999999998 6.7499999999999991 5.4999999999999991 5.75 11.749999999999995 30.250000000000004 28.75
leaf_count=3203 46 23 81 277 21 246 512 119 405 54 23 49 77 35 22 300 232 162 136 50 2657 595 168 64 27 22 23 47 121 115
internal_value=0 -0.106842 0.164353 -0.142945 -0.157169 -0.061837 -0.158696 0.034555 0.119613 -0.169889 -0.100813 -0.00988593 -0.110448 0.00640569 -0.123827 -0.127203 -0.109677 0.0774347 0.110345 0.05 0.178427 0.156582 0.120295 -0.172207 0.037037 0.0407767 -0.0521739 -0.0373832 -0.0142857 -0.127551
internal_weight=0 1501.75 976.25 1295.25 1102 193.25 1096.75 95.5 206.5 830.25 123 65.75 117.25 70.25 266.5 261 186 105.25 58 24 880.75 216.5 67.75 816.75 47.25 25.75 11.5 53.5 42 98
internal_count=9912 6007 3905 5181 4408 773 4387 382 826 3321 492 263 469 281 1066 1044 744 421 232 96 3523 866 271 3267 189 103 46 214 168 392
is_linear=0
shrinkage=0.1


Tree=1
num_leaves=31
num_cat=0
split_feature=17 19 18 11 58 18 0 19 12 15 21 17 6 11 3 11 1 15 19 9 8 15 13 11 9 22 9 9 1 23
split_gain=3550.98 1000.92 146.872 122.997 43.8111 41.8642 35.599 33.9406 31.9309 22.2691 19.5421 17.6339 12.7543 14.4492 16.9802 12.711 12.5602 11.7543 16.4886 18.0282 9.9456 14.7858 12.1946 11.1244 9.91701 9.82887 9.14439 8.81587 8.58133 10.0444
threshold=1.5000000000000002 5.5000000000000009 6.5000000000000009 1294.0000000000002 1.0000000180025095e-35 6.5000000000000009 42.500000000000007 6.5000000000000009 7.5000000000000009 5175.0000000000009 3770.2500000000005 3.5000000000000004 4458.7500000000009 7166.7500000000009 1225.5000000000002 8772.2500000000018 13.500000000000002 9160.0000000000018 1.0000000180025095e-35 263.50000000000006 2.5000000000000004 13085.000000000002 27162.500000000004 1168.5000000000002 3375.5000000000005 3875.0000000000005 230.25000000000003 31.250000000000004 18.500000000000004 1.0000000180025095e-35
decision_type=2 2 2 2 2 2 2 2 2 2 2 2 2 2 2 2 2 2 2 2 2 2 2 2 2 2 2 2 2 2
left_child=1 3 7 4 6 10 9 11 20 24 16 26 13 14 -4 -7 -5 18 19 -8 21 22 25 -23 -1 -3 -2 -12 29 -21
right_child=2 8 12 5 -6 15 17 -9 -10 -11 27 -13 -14 -15 -16 -17 -18 -19 -20 28 -22 23 -24 -25 -26 -27 -28 -29 -30 -31
leaf_value=-0.15739007765130739 -0.08370195530961641 0.050572407174318657 -0.050884861381079075 -0.12075581392847567 0.14670677971886792 -0.010244241382357399 -0.12007870748168537 0.12004276786736219 0.14673491292636473 -0.026672734029162315 -0.060770479471801732 0.099496303511516337 0.16804835686861852 0.16523471101439458 0.12074454791936771 0.11881622392399843 -0.027077912806744445 0.032738494789002461 -0.15476280107495927 -0.029252442395126615 0.030312724715265135 0.1647613683498298 0.1154111266755217 0.049925212375852401 -0.054517690244061834 -0.13666968660586873 0.00053035384245354508 0.092780173496869262 0.04339765679813487 -0.11982388622883924
leaf_weight=801.21410463750362 21.707899987697601 5.4946145713329333 6.2220115214586249 90.608463406562805 5.2157451063394538 61.498009532690048 127.43720245361328 29.61927156150341 105.09391538798809 13.497037231922148 7.4752029627561551 12.212881013751028 696.02570658922195 92.981750100851059 78.391558602452278 8.7123228609561902 16.997677564620972 5.4981822073459616 74.456508457660675 28.475529760122299 41.412774056196213 27.351515740156174 8.212006524205206 12.197562724351881 9.4818394184112531 5.7239703238010406 31.722579270601273 7.4810126125812531 7.9931311607360831 21.481539994478226
leaf_count=3229 87 22 25 364 21 246 512 119 423 54 30 49 2807 375 316 35 68 22 300 114 166 110 33 49 38 23 127 30 32 86
internal_value=0 -0.0967457 0.149088 -0.129456 -0.142426 -0.0558003 -0.14381 0.0311827 0.108207 -0.154066 -0.0910715 -0.00891229 0.161945 0.138025 0.108124 0.00577073 -0.105958 -0.111952 -0.115014 -0.0990498 0.0678748 0.0942491 0.0228166 0.129344 -0.156187 -0.0449627 -0.0336918 0.0160347 -0.0528056 -0.0681982
internal_weight=0 1493.01 968.884 1287.52 1094.75 192.773 1089.54 95.2626 205.486 824.193 122.562 65.6434 873.621 177.595 84.6136 70.2103 107.606 265.342 259.844 185.387 100.392 58.9797 19.4306 39.5491 810.696 11.2186 53.4305 14.9562 57.9502 49.9571
internal_count=9912 6007 3905 5181 4408 773 4387 382 826 3321 492 263 3523 716 341 281 432 1066 1044 744 403 237 78 159 3267 45 214 60 232 200
is_linear=0
shrinkage=0.1


Tree=2
num_leaves=31
num_cat=0
split_feature=17 19 18 11 19 58 8 0 13 6 21 11 14 3 18 6 9 13 19 19 19 3 14 13 10 15 22 18 15 3
split_gain=2933.84 825.358 124.395 97.4431 38.6026 34.1798 32.6197 30.495 28.384 16.5427 14.4969 14.1321 14.0377 11.8361 14.1108 17.2956 11.7411 11.1676 10.5169 10.1226 10.1218 8.86139 8.55178 12.2332 10.7939 8.67419 8.3523 8.10333 8.78859 9.2338
threshold=1.5000000000000002 4.5000000000000009 6.5000000000000009 1294.0000000000002 9.5000000000000018 1.0000000180025095e-35 2.5000000000000004 42.500000000000007 20067.500000000004 6849.7500000000009 3770.2500000000005 8772.2500000000018 2.5000000000000004 4348.2500000000009 13.500000000000002 12359.250000000002 491.75000000000006 9767.5000000000018 3.5000000000000004 2.5000000000000004 1.0000000180025095e-35 12700.500000000002 5.5000000000000009 23167.500000000004 4.5000000000000009 5175.0000000000009 -10119.999999999998 2.5000000000000004 1292.5000000000002 2631.2500000000005
decision_type=2 2 2 2 2 2 2 2 2 2 2 2 2 2 2 2 2 2 2 2 2 2 2 2 2 2 2 2 2 2
left_child=1 3 8 5 22 7 10 12 9 27 -5 -8 17 14 15 19 18 -1 20 -4 -9 -11 23 25 -25 -3 -6 -2 29 -29
right_child=2 4 13 6 26 -7 11 16 -10 21 -12 -13 -14 -15 -16 -17 -18 -19 -20 -21 -22 -23 -24 24 -26 -27 -28 28 -30 -31
leaf_value=-0.14464784289105492 -0.097614732023587517 -0.10813439898656466 -0.015836811576501235 -0.099945600808110116 0.035885246183634915 0.13248661468669254 -0.01511625208131917 -0.10419930125756503 0.10806380246560868 0.014804072065410866 0.0014650298406603942 0.12707413891975891 -0.011643012284591817 0.15693585425714243 0.1470621583090731 0.13402841996834861 -0.061778328534327798 -0.0035903352864071489 0.015163000686644931 0.095350770541586596 -0.15544553071440395 0.14561002491587288 0.14479675486693974 0.098621604768355492 -0.018704498816344624 0.013362731976806817 0.13276144866417669 -0.044136633248962588 -0.125335431866018 0.10038941013252645
leaf_weight=789.05444470047951 18.147567167878151 7.1147607415914527 16.063143447041512 99.46919384598732 9.6146137863397581 4.8828130960464469 62.119883030653 144.15433420240879 30.299577057361603 15.912656366825106 16.423892140388489 7.8760509490966788 8.1388577073812467 588.35576230287552 183.5032013207674 50.790020629763603 54.960173934698105 5.6528555601835242 6.1246362179517737 16.701384678483009 52.607563704252243 7.6778989583253852 7.1911148130893698 31.255810469388962 10.467261254787443 33.755201518535614 119.67616985738277 9.2382354587316566 4.9804109930992118 8.477143391966818
leaf_count=3242 73 29 65 403 39 20 249 585 123 64 66 32 33 2426 755 209 222 23 25 68 216 31 29 127 42 136 489 37 20 34
internal_value=0 -0.0884822 0.13697 -0.119827 0.0905767 -0.131482 -0.0530189 -0.132697 0.0282415 -0.00929433 -0.0855741 0.000883231 -0.142306 0.149011 0.131551 0.0974861 -0.102778 -0.143644 -0.113884 0.0408399 -0.117901 0.0573768 0.0402039 0.0310974 0.0691875 -0.00778784 0.125557 -0.0478027 -0.00797289 0.0250218
internal_weight=0 1470.54 950.147 1251.46 219.075 1065.58 185.889 1060.69 94.7335 64.4339 115.893 69.9959 802.846 855.414 267.058 83.5545 257.847 794.707 202.887 32.7645 196.762 23.5906 89.7841 82.593 41.7231 40.87 129.291 40.8434 22.6958 17.7154
internal_count=9912 6007 3905 5116 891 4366 750 4346 382 259 469 281 3298 3523 1097 342 1048 3265 826 133 801 95 363 334 169 165 528 164 91 71
is_linear=0
shrinkage=0.1


Tree=3
num_leaves=31
num_cat=0
split_feature=17 19 18 11 19 0 8 13 3 21 9 11 9 14 6 11 8 13 11 13 19 19 0 9 14 0 15 11 11 19
split_gain=2445.93 685.332 107.565 84.3351 33.8027 29.7379 26.896 23.7438 13.857 12.8564 12.1683 11.6745 11.4478 11.2834 11.2655 12.9481 13.7849 10.0208 14.0824 12.9536 9.77092 10.2533 8.89567 8.98508 8.28018 8.40662 8.20786 7.91354 7.4851 7.46388
threshold=1.5000000000000002 4.5000000000000009 6.5000000000000009 1294.0000000000002 11.500000000000002 42.500000000000007 2.5000000000000004 6665.0000000000009 2039.0000000000002 2524.7500000000005 3375.5000000000005 8772.2500000000018 534.75000000000011 2.5000000000000004 4458.7500000000009 8772.2500000000018 4.5000000000000009 20850.000000000004 324.75000000000006 902.50000000000011 3.5000000000000004 1.0000000180025095e-35 45.500000000000007 246.75000000000003 1.0000000180025095e-35 36.500000000000007 5175.0000000000009 368.25000000000006 142.25000000000003 1.0000000180025095e-35
decision_type=2 2 2 2 2 2 2 2 2 2 2 2 2 2 2 2 2 2 2 2 2 2 2 2 2 2 2 2 2 2
left_child=1 3 7 5 17 10 9 8 -2 -5 13 -8 20 28 15 16 -4 19 -19 -3 21 27 23 -10 25 -11 -21 -7 -1 -14
right_child=2 4 14 6 -6 12 11 -9 22 24 -12 -13 29 -15 -16 -17 -18 18 -20 26 -22 -23 -24 -25 -26 -27 -28 -29 -30 -31
leaf_value=-0.14165288151984376 -0.070463477215715428 0.15447348615137896 0.0046157048541994993 -0.09790197371353021 0.1268186167796673 -0.10432315288922792 -0.013610811734748035 0.090824373545559833 -0.070664995709133913 -0.073564685236863936 -0.023203149589483208 0.11676889715012935 -0.026376764567606011 -0.011622805083504458 0.14445412917891565 0.15017206619038984 0.10847551331394252 0.12829839069315171 0.036395571452866392 -0.12959105800703333 0.019256255004136351 -0.14480416627997184 0.12307498605040333 0.047829551699073686 -0.13367993868627245 0.047446925934240582 0.0088260886509053324 -0.045213525606263544 -0.12131573568134435 -0.11042604302192807
leaf_weight=470.60115982592106 24.567303150892258 5.6314082443714133 14.929493114352224 84.538474902510643 96.661616072058678 118.43205443024635 62.093087568879128 35.051288366317749 10.627280056476595 9.0949253886938148 10.298640578985212 7.7218832969665518 37.396420791745186 7.6303399205207816 659.70033094286919 66.039512410759926 88.733534395694733 26.789562672376633 44.15328748524189 4.8346617221832267 6.3730580508708945 51.744207844138145 7.636585220694541 16.084333673119545 5.4210584610700598 15.566069796681402 37.613071158528328 28.005034774541855 294.05743503570557 14.726294770836828
leaf_count=1990 99 23 62 347 405 488 249 144 43 37 42 32 151 31 2807 281 373 111 180 20 26 219 31 65 22 63 152 115 1243 61
internal_value=0 -0.0814687 0.127055 -0.110438 0.0828894 -0.121497 -0.0481205 0.0256539 -0.0131187 -0.0779239 -0.131185 0.000809833 -0.09196 -0.132625 0.138543 0.115565 0.0935177 0.0472131 0.0711001 0.0119667 -0.10262 -0.10654 0.0278967 0.00068621 -0.0217801 0.00281809 -0.00693918 -0.0930189 -0.133832 -0.0501233
internal_weight=0 1439.38 923.37 1223.7 215.684 1039.26 184.435 93.9668 58.9155 114.621 782.588 69.815 256.677 772.289 829.403 169.703 103.663 119.022 70.9429 48.0791 204.554 198.181 34.3482 26.7116 30.0821 24.661 42.4477 146.437 764.659 52.1227
internal_count=9912 6007 3905 5116 891 4366 750 382 238 469 3306 281 1060 3264 3523 716 435 486 291 195 848 822 139 108 122 100 172 603 3233 212
is_linear=0
shrinkage=0.1


Tree=4
num_leaves=31
num_cat=0
split_feature=17 19 18 11 179 19 58 15 18 0 19 1 19 11 3 18 6 17 11 12 1 9 13 18 13 15 6 11 3 0
split_gain=2052.55 572.294 94.5227 73.9861 35.4603 29.3498 28.648 22.9327 22.6935 20.7998 20.3742 13.8288 11.3469 12.1425 11.3356 12.856 14.6847 11.2666 10.4664 10.3458 9.12284 8.90572 8.34249 11.645 10.2076 9.06213 8.01874 12.8213 9.55805 7.68305
threshold=1.5000000000000002 4.5000000000000009 6.5000000000000009 1294.0000000000002 1.0000000180025095e-35 11.500000000000002 1.0000000180025095e-35 8835.0000000000018 12.500000000000002 42.500000000000007 6.5000000000000009 11.500000000000002 1.0000000180025095e-35 550.50000000000011 4348.2500000000009 13.500000000000002 14043.500000000002 3.5000000000000004 5180.2500000000009 6.5000000000000009 16.500000000000004 2272.2500000000005 22647.500000000004 4.5000000000000009 902.50000000000011 5867.5000000000009 2244.0000000000005 3460.2500000000005 21249.250000000004 42.500000000000007
decision_type=2 2 2 2 2 2 2 2 2 2 2 2 2 2 2 2 2 2 2 2 2 2 2 2 2 2 2 2 2 2
left_child=1 3 10 4 6 22 7 9 11 21 17 18 13 20 15 16 19 -2 -5 -4 -11 -1 24 -24 -3 -26 27 28 -16 -10
right_child=2 5 14 8 -6 -7 -8 -9 29 12 -12 -13 -14 -15 26 -17 -18 -19 -20 -21 -22 -23 23 -25 25 -27 -28 -29 -30 -31
leaf_value=-0.12666955896101562 -0.027378029785529442 0.14144458511004435 -0.0008888749675285331 -0.089386545174243076 0.1670221331507904 0.1178802120281667 0.12854132662942686 0.065433706079293386 -0.0065574448757297612 -0.10165520456242128 0.094046334532280632 -0.0089304290978700508 -0.12637993925875665 -0.022198408540369665 -0.08582533899000884 0.12759931669918553 0.11634071803193782 0.080376119519482717 0.023585779665993064 0.12868187175279303 -0.034689848927727189 -0.05786550564170985 0.10502173452367787 0.020452670385065031 -0.10996405491214988 0.015866003421213418 0.14224763282251288 0.12796020286448959 0.085565564274825257 0.088922600551558803
leaf_weight=729.32943361997604 52.90182600915432 5.5395781099796286 26.210541248321533 98.694518014788628 4.5039844810962668 93.743314936757088 4.8385764807462683 6.9660115689039221 25.764833986759186 119.89065119624138 28.337541446089745 36.719434767961502 66.633797779679298 31.989262908697128 5.3354608714580527 171.59007951617241 45.281260296702385 11.882988408207892 8.9438721984624845 8.0565625578165037 24.501194387674332 19.310346662998199 35.873962298035622 29.814168050885201 6.6782658398151389 40.033677563071251 483.63908120989799 50.026379302144051 8.3398918211460096 12.524432256817816
leaf_count=3194 214 23 109 410 19 405 20 28 104 501 119 149 290 131 23 755 199 49 36 34 102 81 152 121 28 162 2147 220 36 51
internal_value=0 -0.0753922 0.118665 -0.102329 -0.112941 0.0761146 -0.114197 -0.115373 -0.0437685 -0.116643 0.023322 -0.0619221 -0.0912238 -0.0779424 0.129784 0.112194 0.0789644 -0.0076135 -0.0799995 0.0295746 -0.0902922 -0.124895 0.0429175 0.066638 0.0130972 -0.00212354 0.137855 0.104504 0.0186971 0.0246741
internal_weight=0 1402.29 891.602 1190.61 1007.96 211.683 1003.46 998.621 182.647 991.655 93.1224 144.358 243.015 176.381 798.479 251.138 79.5484 64.7848 107.638 34.2671 144.392 748.64 117.94 65.6881 52.2515 46.7119 547.341 63.7017 13.6754 38.2893
internal_count=9912 6007 3905 5116 4366 891 4347 4327 750 4299 382 595 1024 734 3523 1097 342 263 446 143 603 3275 486 273 213 190 2426 279 59 155
is_linear=0
shrinkage=0.1


Tree=5
num_leaves=31
num_cat=0
split_feature=17 19 18 9 179 12 0 10 11 13 9 0 17 11 9 11 14 12 11 19 19 0 11 14 13 18 9 22 1 1
split_gain=1731.97 480.081 84.1798 67.2656 33.0716 26.2292 25.191 20.1685 16.9852 16.9702 12.6804 12.3694 10.8903 19.0632 19.8046 10.2453 10.1395 9.9518 9.37872 8.36701 10.1855 7.53812 8.27621 7.41523 7.95767 7.92259 7.9436 7.69959 7.38215 7.07534
threshold=1.5000000000000002 4.5000000000000009 6.5000000000000009 728.00000000000011 1.0000000180025095e-35 7.5000000000000009 43.500000000000007 1.5000000000000002 4370.2500000000009 24290.000000000004 3632.0000000000005 45.500000000000007 2.5000000000000004 5261.2500000000009 6594.2500000000009 87.750000000000014 2.5000000000000004 5.5000000000000009 1360.7500000000002 3.5000000000000004 1.0000000180025095e-35 46.500000000000007 500.50000000000006 5.5000000000000009 17785.000000000004 5.5000000000000009 3203.5000000000005 -15342.499999999998 13.500000000000002 17.500000000000004
decision_type=2 2 2 2 2 2 2 2 2 2 2 2 2 2 2 2 2 2 2 2 2 2 2 2 2 2 2 2 2 2
left_child=1 3 9 4 6 23 8 29 16 11 21 15 13 14 17 -2 -1 -4 19 20 -8 22 -9 24 -3 -26 -27 -25 -12 -5
right_child=2 5 12 7 -6 -7 18 10 -10 -11 28 -13 -14 -15 -16 -17 -18 -19 -20 -21 -22 -23 -24 27 25 26 -28 -29 -30 -31
leaf_value=-0.12010834309693662 -0.10617480782057359 -0.017638975549643422 -0.080415758886421634 -0.09352704690029702 0.1669367830563577 0.10882864234506007 -0.074682440136950565 0.04147231373985269 0.038422871793990093 0.087352913730502024 0.013080698170842382 0.077073474011084289 0.12647931844504795 0.1229132936562134 0.1387711230694057 -0.003229599396130719 -0.0046562060511566887 0.089953143808853636 -0.015024047421618884 0.030834468243144314 -0.12902431094088015 0.013078838094475496 -0.059870656487497537 0.011803429133639846 0.074719458489666532 -0.039939215062130329 0.085781700696764177 0.13257683420176966 0.14723373089515318 0.024040241460571224
leaf_weight=701.62474536895752 12.956952288746832 29.913112789392471 14.061567023396497 77.271974861621857 4.3811168968677512 94.891459062695503 132.36976282298565 8.895690590143202 6.9334805011749259 27.316899955272675 21.001664459705356 13.88947421312332 682.7939285337925 53.264601826667786 9.4722817838191968 38.078477621078491 7.6903416216373435 4.5342106074094763 21.407714024186134 6.0389183312654486 46.64633184671402 23.387611538171768 85.605498343706131 8.3251572400331515 36.351306274533272 15.847458124160768 7.359815537929534 14.425124555826185 5.0974674075841895 5.4820270985364905
leaf_count=3183 53 122 61 339 18 423 564 39 28 117 86 57 3156 243 43 155 32 20 88 25 213 96 361 35 155 64 30 62 21 23
internal_value=0 -0.0700575 0.111466 -0.0952209 -0.107162 0.0701284 -0.108463 -0.0463983 -0.117334 0.0212273 -0.0237882 -0.00659485 0.122359 0.0877692 0.0210764 -0.0293655 -0.118857 -0.0388747 -0.0776878 -0.0849369 -0.0888423 -0.0377513 -0.0503309 0.0374046 0.0244425 0.0455779 -6.88381e-05 0.0883814 0.0392824 -0.0857388
internal_weight=0 1360.95 856.368 1153.83 927.092 207.113 922.711 226.742 716.249 92.2418 143.988 64.9249 764.127 81.3327 28.0681 51.0354 709.315 18.5958 206.463 185.055 179.016 117.889 94.5012 112.222 89.4717 59.5586 23.2073 22.7503 26.0991 82.754
internal_count=9912 6007 3905 5116 4151 891 4133 965 3243 382 603 265 3523 367 124 208 3215 81 890 802 777 496 400 468 371 249 94 97 107 362
is_linear=0
shrinkage=0.1


Tree=6
num_leaves=31
num_cat=0
split_feature=17 19 18 18 249 0 12 19 21 11 3 9 20 18 14 9 9 6 9 15 11 6 20 11 14 22 19 1 6 11
split_gain=1466.02 403.703 75.6723 61.1592 41.4746 29.8001 23.0266 13.6122 12.8869 12.3774 11.9791 12.334 14.9822 19.1007 11.4748 11.8004 10.0775 10.2022 9.9465 9.86287 9.67351 8.67707 8.64771 8.56379 7.79281 7.28717 7.21528 7.4292 6.94126 10.0155
threshold=1.5000000000000002 4.5000000000000009 5.5000000000000009 6.5000000000000009 1.0000000180025095e-35 41.500000000000007 7.5000000000000009 6.5000000000000009 1770.7500000000002 4370.2500000000009 3292.5000000000005 6789.0000000000009 12068.250000000002 15.500000000000002 1.0000000180025095e-35 3455.5000000000005 728.00000000000011 1639.5000000000002 728.00000000000011 3285.0000000000005 9457.7500000000018 6929.7500000000009 3352.7500000000005 239.75000000000003 2.5000000000000004 -1972.4999999999998 1.0000000180025095e-35 16.500000000000004 2244.0000000000005 3460.2500000000005
decision_type=2 2 2 2 2 2 2 2 2 2 2 2 2 2 2 2 2 2 2 2 2 2 2 2 2 2 2 2 2 2
left_child=1 3 7 4 5 9 -3 21 18 16 11 12 13 20 15 23 24 -18 25 -16 22 -2 -4 -5 -1 -7 27 -27 29 -12
right_child=2 6 10 14 -6 8 -8 -9 -10 -11 28 -13 -14 -15 19 -17 17 -19 -20 -21 -22 -23 -24 -25 -26 26 -28 -29 -30 -31
leaf_value=-0.11560445060353336 -0.04405159538968844 0.034083501931420228 0.017987660710490662 -0.12121186795662658 0.21361896356506654 0.0097338494823865779 0.10185146393884736 0.0758413393781978 0.0085736167024445357 0.030105284292747475 0.019914710418327861 0.12502757162298614 0.10959280629902035 0.098610065913769474 -0.13373368363117744 0.06955340660903514 -0.09099995816898114 0.01428493818069459 -0.033326771267608878 0.016297934028117477 0.10914156703547409 0.040304394084063819 -0.09684662573989504 -0.0057173549632818319 -0.0056074145828965442 -0.087500874461652819 -0.12040751897196783 -0.031534999804132505 0.12650480553630614 0.11271737082474334
leaf_weight=607.12385179102421 36.486163318157196 111.0184753537178 12.874719038605695 7.2856267094612113 4.3034673035144797 7.8964433670043936 91.434203326702118 22.973949640989304 19.255046725273132 6.3947435617446891 14.891562193632124 73.708548933267593 55.964396387338638 27.191266715526581 12.981505304574968 19.682722598314285 89.71292220056057 10.255779162049292 45.334016412496567 6.6141175478696814 5.1710084676742545 18.314756363630295 13.36563980579376 54.043319314718246 6.5097464323043814 137.54421778023243 52.396856531500816 28.661536633968353 485.76866690814495 53.083881139755249
leaf_count=2886 149 468 54 34 19 35 423 101 79 26 66 353 267 130 56 81 406 45 191 27 24 75 58 227 27 606 248 123 2374 254
internal_value=0 -0.0652282 0.105072 -0.0887965 -0.0961654 -0.0974839 0.0646897 0.0112281 -0.0704836 -0.1084 0.114908 0.0931176 0.0725878 0.0372487 -0.014426 0.00218377 -0.109641 -0.0801988 -0.0760836 -0.0830935 -0.0158687 -0.0158594 -0.0405037 -0.0194376 -0.114438 -0.0846414 -0.0880504 -0.0778498 0.122317 0.0923868
internal_weight=0 1318.45 819.795 1116 1015.39 1011.09 202.453 77.7749 291.088 719.997 742.02 188.276 114.567 58.6026 100.607 81.0117 713.602 99.9687 271.833 19.5956 31.4114 54.8009 26.2404 61.3289 613.634 226.499 218.603 166.206 553.744 67.9754
internal_count=9912 6007 3905 5116 4691 4672 891 325 1282 3390 3580 886 533 266 425 342 3364 451 1203 83 136 224 112 261 2913 1012 977 729 2694 320
is_linear=0
shrinkage=0.1


Tree=7
num_leaves=31
num_cat=0
split_feature=17 19 18 11 249 58 179 0 19 18 19 13 77 3 18 6 3 11 18 1 2 14 12 18 19 19 1 11 6 11
split_gain=1244.94 341.771 68.8715 58.3204 31.5245 25.4975 22.2448 19.6841 18.01 16.3418 12.6036 12.2177 12.2028 11.1232 11.5325 11.7452 10.7484 10.6427 9.76096 9.09887 8.99519 8.36829 7.83031 7.73516 9.2323 8.0618 7.81166 7.60277 7.56767 10.369
threshold=1.5000000000000002 5.5000000000000009 6.5000000000000009 1294.0000000000002 1.0000000180025095e-35 1.0000000180025095e-35 1.0000000180025095e-35 42.500000000000007 14.500000000000002 6.5000000000000009 9.5000000000000018 10462.500000000002 1.0000000180025095e-35 4348.2500000000009 13.500000000000002 12359.250000000002 35422.750000000007 6121.5000000000009 4.5000000000000009 13.500000000000002 1.0000000180025095e-35 2.5000000000000004 6.5000000000000009 2.5000000000000004 1.0000000180025095e-35 3.5000000000000004 4.5000000000000009 130.25000000000003 2244.0000000000005 2085.2500000000005
decision_type=2 2 2 2 2 2 2 2 2 2 2 2 2 2 2 2 2 2 2 2 2 2 2 2 2 2 2 2 2 2
left_child=1 3 10 4 5 6 7 11 12 17 16 21 18 14 15 22 -2 19 20 -5 -3 27 -4 25 26 -9 -25 -1 29 -15
right_child=2 8 13 9 -6 -7 -8 23 -10 -11 -12 -13 -14 28 -16 -17 -18 -19 -20 -21 -22 -23 -24 24 -26 -27 -28 -29 -30 -31
leaf_value=-0.11642602772914015 -0.012751581980789382 0.090824733003754557 -0.015244859904687866 -0.074281580286808868 0.17915944885858071 0.1303350070495489 0.10706290859760965 -0.092266729656092006 0.118336140869509 0.008051652526635705 0.088126392496506001 0.025124185119584037 -0.10149023714527663 -0.057098211307863626 0.10754053022455595 0.093309318942177477 0.14437597231202812 0.079518065015094175 0.023686747901781491 0.002300284034139071 -0.029551890659398439 -0.010293222335821908 0.10669902036877521 -0.10238138935316182 -0.09621188112011457 0.03996941477150831 -0.015753343843950943 -0.094359608686901866 0.12354456066233264 0.097495408161802036
leaf_weight=387.61871911585331 66.045795530080795 62.136825397610664 23.775933817029003 88.232755541801453 4.2576861381530753 5.0569322407245627 5.4240694493055335 123.39463169872761 48.093136802315712 69.016900643706322 19.657971501350403 7.1601969450712195 5.3132824599742881 4.7332467436790457 149.52876059710979 41.887445285916328 4.660731464624404 5.6914679855108252 60.126945748925209 18.824425622820854 6.8966217637062064 8.9716345220804197 6.7637174874544135 12.617833346128462 30.949436783790588 4.789266124367713 59.474520668387413 261.45558467507362 413.11685688793659 52.039596080780029
leaf_count=1944 273 281 102 392 18 21 22 569 233 281 89 31 23 21 755 209 20 23 258 77 31 37 31 55 147 20 255 1289 2147 258
internal_value=0 -0.060836 0.0994016 -0.0819923 -0.0923097 -0.0935841 -0.0948397 -0.0960614 0.0658163 -0.0302725 0.0172977 -0.104798 0.0470331 0.110125 0.0916764 0.0589242 -0.00239427 -0.0537318 0.0531429 -0.0608158 0.0787988 -0.106212 0.0117625 -0.0709275 -0.0505276 -0.0873261 -0.0309153 -0.107537 0.11884 0.0846067
internal_weight=0 1275.5 782.21 1092.94 911.171 906.913 901.856 896.432 182.567 181.766 90.3645 665.206 134.474 691.846 221.956 72.4271 70.7065 112.749 129.16 107.057 69.0334 658.046 30.5397 231.226 103.042 128.184 72.0924 649.074 469.89 56.7728
internal_count=9912 6007 3905 5181 4408 4390 4369 4347 826 773 382 3301 593 3523 1097 342 293 492 570 469 312 3270 133 1046 457 589 310 3233 2426 279
is_linear=0
shrinkage=0.1


Tree=8
num_leaves=31
num_cat=0
split_feature=17 19 18 211 18 249 58 0 216 19 11 13 6 11 9 77 13 19 9 9 14 1 2 12 4 3 11 9 9 6
split_gain=1059.49 288.475 62.7053 58.4552 53.4842 31.2064 25.5114 21.5464 17.3356 15.6497 13.3496 11.6897 10.9261 13.5342 13.3262 10.8633 10.6675 10.3502 10.1599 10.0971 9.59088 9.17568 9.11928 9.92239 10.8082 9.29021 9.62272 8.86051 7.76585 11.3789
threshold=1.5000000000000002 5.5000000000000009 6.5000000000000009 1.0000000180025095e-35 6.5000000000000009 1.0000000180025095e-35 1.0000000180025095e-35 44.500000000000007 1.0000000180025095e-35 14.500000000000002 4819.0000000000009 10462.500000000002 5314.5000000000009 8772.2500000000018 6509.0000000000009 1.0000000180025095e-35 6665.0000000000009 1.0000000180025095e-35 728.00000000000011 87.250000000000014 2.5000000000000004 13.500000000000002 3.5000000000000004 7.5000000000000009 1.0000000180025095e-35 16261.250000000002 4086.0000000000005 4549.7500000000009 1671.0000000000002 1220.5000000000002
decision_type=2 2 2 2 2 2 2 2 2 2 2 2 2 2 2 2 2 2 2 2 2 2 2 2 2 2 2 2 2 2
left_child=1 3 16 4 5 6 7 10 9 15 11 18 13 14 22 28 17 19 20 -2 -1 -20 23 24 25 26 -4 -6 -3 -30
right_child=2 8 12 -5 27 -7 -8 -9 -10 -11 -12 -13 -14 -15 -16 -17 -18 -19 21 -21 -22 -23 -24 -25 -26 -27 -28 -29 29 -31
leaf_value=-0.1051064659526974 -0.059382990315067878 0.071376590283866281 -0.11240253277268504 0.28564136770429299 -0.02296752602514944 0.16701581017262854 0.12465582655770886 -0.05868784727965709 -0.1093059614730791 0.11816807727872761 0.037740142634032935 0.018978437354718908 0.11245856157483594 0.11962313408108019 0.10313781345927474 -0.09009132427852555 0.062151932973429962 -0.090935338504590929 -0.080768649541309911 0.043359961030051665 0.0024822219512656354 0.011134195423583307 0.10574776088562612 0.095000657353773443 -0.12168248539434412 0.12236774793008945 0.026720321275459764 0.055842306302721849 -0.013693019202339094 0.11956209201107518
leaf_weight=612.9925172328949 13.72253781557083 86.531614288687706 7.1568046212196412 4.4321917444467536 85.992876440286636 4.8595077842473975 5.6579002887010565 194.29071052372456 5.7936771214008322 43.8139778226614 7.3781175911426535 8.5238324701786023 489.76188324391842 62.173139974474907 43.011343896389008 5.3828689754009238 31.898191347718239 12.382510364055632 91.437787219882011 31.572669610381126 8.3991487473249418 12.328529268503187 12.669309705495833 10.730315923690794 7.4697936773300162 6.1462944895029059 16.283154904842377 17.10320945084095 28.339213445782661 8.2806069403886777
leaf_count=3188 57 394 31 20 372 20 24 890 26 224 30 37 2668 337 224 23 144 51 439 130 35 55 65 53 36 31 78 71 122 37
internal_value=0 -0.0568545 0.0942242 -0.0767574 -0.0782887 -0.0857435 -0.0870488 -0.0883294 0.0608364 0.0665559 -0.0961008 -0.0974467 0.10495 0.082748 0.0605898 0.0489626 0.0157479 -0.0099155 -0.0988152 0.0122332 -0.103652 -0.0698496 0.0303189 0.0103209 -0.0141998 0.012937 -0.0157574 -0.0098933 0.0550406 0.0164391
internal_weight=0 1231.54 744.978 1053.4 1048.96 945.868 941.009 935.351 178.142 172.348 741.06 733.682 655.402 165.64 103.467 128.534 89.5759 57.6777 725.158 45.2952 621.392 103.766 60.4557 47.7864 37.056 29.5863 23.44 103.096 123.151 36.6198
internal_count=9912 6007 3905 5181 5161 4718 4698 4674 826 800 3784 3754 3523 855 518 576 382 238 3717 187 3223 494 294 229 176 140 109 443 553 159
is_linear=0
shrinkage=0.1


Tree=9
num_leaves=31
num_cat=0
split_feature=17 13 18 11 18 1 19 22 1 19 3 216 18 3 6 19 9 77 11 19 22 0 11 6 11 3 0 22 11 14
split_gain=902.638 243.91 57.191 53.2198 22.5108 18.3941 16.3218 14.0454 12.9415 12.3959 11.4603 11.0942 11.0303 10.0887 9.99354 9.899 9.83993 9.31278 9.70588 9.05644 8.47509 8.02968 9.64745 7.46501 9.30425 8.69529 7.40517 7.0439 6.70587 6.56285
threshold=1.5000000000000002 10462.500000000002 6.5000000000000009 334.25000000000006 6.5000000000000009 16.500000000000004 14.500000000000002 -2139.9999999999995 10.500000000000002 1.0000000180025095e-35 4348.2500000000009 1.0000000180025095e-35 13.500000000000002 35422.750000000007 14043.500000000002 1.0000000180025095e-35 278.25000000000006 1.0000000180025095e-35 324.75000000000006 9.5000000000000018 -1417.4999999999998 21.500000000000004 8953.0000000000018 2244.0000000000005 3700.7500000000005 16261.250000000002 40.500000000000007 7450.0000000000009 75.250000000000014 2.5000000000000004
decision_type=2 2 2 2 2 2 2 2 2 2 2 2 2 2 2 2 2 2 2 2 2 2 2 2 2 2 2 2 2 2
left_child=1 3 13 5 8 7 11 -1 26 16 12 17 14 19 27 -10 -7 18 -3 28 -17 -6 -23 24 25 -12 29 -4 -2 -5
right_child=2 6 10 4 21 9 -8 -9 15 -11 23 -13 -14 -15 -16 20 -18 -19 -20 -21 -22 22 -24 -25 -26 -27 -28 -29 -30 -31
leaf_value=-0.0046769970505765625 -0.068312339267933939 0.083802184101684371 -0.023475177559549559 -0.084801799412310475 -0.12331352278378319 -0.024732929538207868 0.10754274222185628 -0.097937569272548708 -0.0030021656230941772 -0.11545101305831545 -0.11065937837700086 -0.1175930420800147 0.097201798072377138 0.13627579253716934 0.083782827159459797 0.011306592656132642 0.10946970317264165 -0.081843336596602978 0.026604701231637926 0.070690866736562205 -0.12167220147218689 -0.0029556959186607581 0.12203455962701143 0.11470659989203882 0.099642138307862407 0.058773915715812232 -0.040159532181069331 0.080367303004999488 0.0063193525901649276 0.03037485767999723
leaf_weight=16.630375131964684 15.881774783134459 47.379566237330437 22.45355607569218 153.15271265804768 5.0296505242586127 20.201029971241955 43.271940246224403 557.50318239629269 62.031814262270927 10.634907707571982 4.4748976528644553 4.4847776889801017 134.62087374925613 6.3021082431077948 35.942282319068909 6.9403541684150722 7.4889014065265647 5.7767556458711615 79.360267490148544 16.725814670324326 15.487997204065321 80.516556650400162 6.6882997155189505 365.45123690366745 38.381792798638344 9.3735927194356901 61.367422133684158 9.2123328447341901 49.764443501830101 5.1123928278684607
leaf_count=75 67 224 98 796 22 96 233 3009 284 55 20 19 755 29 199 32 32 25 354 80 76 339 30 2147 214 45 284 45 206 22
internal_value=0 -0.0531359 0.0894467 -0.0722819 -0.0437291 -0.0907587 0.0540029 -0.0952362 -0.0568545 -0.0236826 0.100192 0.0370923 0.0806512 0.0143305 0.0476956 -0.0235876 0.0115629 0.0423274 0.047987 0.00500073 -0.0805225 -0.00045539 0.00663061 0.109653 0.0742898 0.00402451 -0.0696474 0.00673498 -0.0117363 -0.0810813
internal_weight=0 1189.06 708.585 1008.79 396.327 612.458 180.273 574.134 304.093 38.3248 619.911 137.001 202.229 88.6741 67.6082 84.4602 27.6899 132.517 126.74 82.372 22.4284 92.2345 87.2049 417.682 52.2303 13.8485 219.633 31.6659 65.6462 158.265
internal_count=9912 6007 3905 5152 1885 3267 855 3084 1494 183 3523 622 1097 382 342 392 128 603 578 353 108 391 369 2426 279 65 1102 143 273 818
is_linear=0
shrinkage=0.1


Tree=10
num_leaves=31
num_cat=0
split_feature=17 19 18 211 11 249 0 19 3 9 20 11 18 216 18 0 9 9 12 1 77 6 11 1 6 0 20 9 18 5
split_gain=769.611 207.913 52.2459 46.4484 46.4337 22.5075 19.1001 13.605 11.3384 10.9899 12.693 15.6365 11.1435 10.6961 9.9803 9.43474 8.90972 8.33417 9.14911 7.91654 7.77454 7.39003 8.34783 7.84487 7.22213 7.01876 7.59838 6.9123 12.1424 9.97347
threshold=1.5000000000000002 5.5000000000000009 6.5000000000000009 1.0000000180025095e-35 1294.0000000000002 1.0000000180025095e-35 41.500000000000007 15.500000000000002 3292.5000000000005 6789.0000000000009 12068.250000000002 8953.0000000000018 17.500000000000004 1.0000000180025095e-35 12.500000000000002 45.500000000000007 3375.5000000000005 366.25000000000006 7.5000000000000009 11.500000000000002 1.0000000180025095e-35 2244.0000000000005 3700.7500000000005 9.5000000000000018 6410.5000000000009 29.500000000000004 3268.5000000000005 1671.0000000000002 12.500000000000002 1.0000000180025095e-35
decision_type=2 2 2 2 2 2 2 2 2 2 2 2 2 2 2 2 2 2 2 2 2 2 2 2 2 2 2 2 2 2
left_child=1 3 15 4 5 6 16 13 9 10 11 12 25 20 19 17 -1 18 -2 -6 27 22 23 -10 -19 -4 -27 -3 29 -29
right_child=2 7 8 -5 14 -7 -8 -9 21 -11 -12 -13 -14 -15 -16 -17 -18 24 -20 -21 -22 -23 -24 -25 -26 26 -28 28 -30 -31
leaf_value=-0.092023414792192559 -0.065391553928238408 0.064566868519164475 -0.16004793248366861 0.24942930776481337 -0.050130528172047065 0.14688417821828922 -0.056634970765473039 0.11089347059295807 -0.047412941011029289 0.10608812304915316 0.089951379154691383 0.098551002054373615 0.097759092395149336 -0.10985454691200509 0.021330571404990603 0.068043241466592227 0.007812788758136931 -0.005685796254022408 0.092434448532776645 0.0047290484003709166 -0.065756734275154036 0.1092046378218151 0.093064950106914235 0.10715021291145621 0.091755050865332588 0.030766817910878153 -0.085046182900804304 -0.082477105149244043 0.072383304815768851 0.084960938387173113
leaf_weight=547.75680029392242 26.845065951347355 89.043448776006699 4.7596188783645657 4.6075542122125617 96.842687681317329 4.3874315917491904 239.74748679995537 32.391346752643585 9.6216127425432187 59.542006835341454 44.469532698392868 15.766072034835814 6.3075851351022711 4.6729551404714575 40.762534782290459 23.027767077088356 9.0872751325368863 21.983415231108665 4.2552171945571891 36.113784044981003 6.1452696919441214 375.10111477971077 42.140596881508827 4.9851815402507773 11.630850791931151 11.463009580969812 11.200376376509665 14.624407008290293 18.008431255817413 4.7009753733873358
leaf_count=3149 114 428 22 20 451 18 1183 185 45 352 260 91 36 20 168 103 41 93 21 151 27 2342 246 24 51 52 53 64 80 22
internal_value=0 -0.049625 0.0850322 -0.0673277 -0.068825 -0.0789897 -0.0802338 0.0526016 0.0958187 0.0724753 0.0511763 0.0163395 -0.0220871 0.0388391 -0.0219579 0.013072 -0.0903942 -0.00648874 -0.0437974 -0.0352295 0.0440823 0.104117 0.0704841 0.00533822 0.0280296 -0.0496531 -0.0264686 0.0494233 0.0133051 -0.0417471
internal_weight=0 1148.89 673.099 979.306 974.698 800.979 796.592 169.587 585.357 153.508 93.9662 49.4967 33.7306 137.195 173.719 87.7423 556.844 64.7145 31.1003 132.956 132.523 431.849 56.7474 14.6068 33.6143 27.423 22.6634 126.377 37.3338 19.3254
internal_count=9912 6007 3905 5181 5161 4391 4373 826 3523 866 514 254 163 641 770 382 3190 279 135 602 621 2657 315 69 144 127 105 594 166 86
is_linear=0
shrinkage=0.1


Tree=11
num_leaves=31
num_cat=0
split_feature=17 13 18 11 18 1 220 19 22 3 19 1 19 22 11 9 6 8 77 21 11 3 11 21 11 0 6 11 1 19
split_gain=656.551 176.855 47.8032 46.4073 16.8297 16.4822 13.9861 15.3234 12.6392 11.0944 10.8842 10.4913 12.9706 12.362 10.341 11.7535 11.3498 10.1149 10.0952 10.0452 8.90123 8.37591 8.15267 7.91104 7.87758 7.47248 7.2039 7.61283 7.3594 7.12913
threshold=1.5000000000000002 10462.500000000002 6.5000000000000009 334.25000000000006 6.5000000000000009 16.500000000000004 1.0000000180025095e-35 12.500000000000002 -2139.9999999999995 4348.2500000000009 1.0000000180025095e-35 4.5000000000000009 1.0000000180025095e-35 -1364.9999999999998 8953.0000000000018 7284.5000000000009 14861.250000000002 5.5000000000000009 1.0000000180025095e-35 3083.2500000000005 324.75000000000006 35422.750000000007 3065.0000000000005 5309.0000000000009 124.25000000000001 33.500000000000007 2244.0000000000005 3460.2500000000005 9.5000000000000018 11.500000000000002
decision_type=2 2 2 2 2 2 2 2 2 2 2 2 2 2 2 2 2 2 2 2 2 2 2 2 2 2 2 2 2 2
left_child=1 3 21 5 11 8 7 18 -1 14 24 19 25 -14 15 16 17 -4 20 -5 -3 29 -19 -22 -7 -13 27 28 -11 -2
right_child=2 6 9 4 -6 10 -8 -9 -10 26 -12 12 13 -15 -16 -17 -18 22 -20 -21 23 -23 -24 -25 -26 -27 -28 -29 -30 -31
leaf_value=0.00040739728297458592 -0.008498382863768637 0.076149504491806103 -0.05358001425554143 -0.080041069222523756 0.001108401478488952 -0.015701042488542927 -0.10037466014692131 0.095695662444929122 -0.089054256156753817 -0.059553910378371704 -0.10741090660513963 -0.062021460328321266 -0.0070378177204395258 -0.1131809010384163 0.10553685583537079 0.098813346851111608 0.076839357035674766 -0.072387640356020772 -0.11006366950966953 0.05136782304203117 0.0063685410740420183 0.12739780331797113 0.065636314738650489 0.13934466207727722 0.10856116854221683 -0.0040062275851877761 0.10723168517696501 0.08932779509778345 0.099509399461924997 0.076558441335647764
leaf_weight=16.300644025206566 69.46575240790844 38.168132364749908 19.521023660898209 103.15135341882706 90.979206010699272 20.236576765775684 6.2144809812307349 54.796546563506126 506.4012284129858 7.9421629756689054 9.7919289618730527 28.441825076937675 16.609412223100662 32.330862700939178 60.767769381403923 41.184113442897797 34.833218455314636 5.2558193951845196 4.8473661094903937 6.1647956669330588 63.107974216341972 5.8575887680053702 23.037291899323463 4.8152695447206488 6.8213885873556128 101.18691600859165 319.43307422101498 35.60092057287693 4.5896103233098984 11.483062446117399
leaf_count=75 295 186 90 570 391 97 33 314 3009 36 55 157 80 174 382 257 215 25 21 27 280 29 128 21 31 486 2147 220 23 58
internal_value=0 -0.0463252 0.080907 -0.0634088 -0.0363833 -0.0817074 0.0469083 0.0524309 -0.0862644 0.091752 -0.0170681 -0.0482317 -0.0332953 -0.0771579 0.0717502 0.0551701 0.0334221 0.00179214 0.0310609 -0.0726304 0.0375089 0.0119233 0.0399965 0.0157956 0.0156258 -0.0167353 0.101797 0.0657323 -0.0012989 0.00356742
internal_weight=0 1110.37 638.971 938.416 378.864 559.552 171.95 165.735 522.702 552.165 36.8499 287.885 178.569 48.9403 184.599 123.831 82.6474 47.8141 110.939 109.316 106.091 86.8064 28.2931 67.9232 27.058 129.629 367.566 48.1327 12.5318 80.9488
internal_count=9912 6007 3905 5152 1885 3267 855 822 3084 3523 183 1494 897 254 1097 715 458 243 508 597 487 382 153 301 128 643 2426 279 59 353
is_linear=0
shrinkage=0.1


Tree=12
num_leaves=31
num_cat=0
split_feature=17 19 18 9 179 11 13 0 144 14 19 15 18 3 11 9 6 15 24 8 17 0 22 11 1 13 9 10 6 11
split_gain=560.137 150.964 43.8705 39.9946 28.8875 20.0218 17.8768 15.214 14.5813 13.0691 12.3056 11.4479 11.1511 10.8001 9.66434 10.6747 9.83436 9.5453 8.32994 8.22811 7.99547 7.69708 7.36255 7.26656 9.13302 8.22801 7.18062 7.09649 7.07283 6.77602
threshold=1.5000000000000002 3.5000000000000004 6.5000000000000009 728.00000000000011 1.0000000180025095e-35 2210.5000000000005 23167.500000000004 44.500000000000007 1.0000000180025095e-35 1.0000000180025095e-35 1.0000000180025095e-35 4887.5000000000009 4.5000000000000009 4348.2500000000009 8953.0000000000018 7284.5000000000009 14861.250000000002 4887.5000000000009 1.0000000180025095e-35 5.5000000000000009 3.5000000000000004 46.500000000000007 100307.50000000001 148.25000000000003 6.5000000000000009 4165.0000000000009 4123.2500000000009 2.5000000000000004 2244.0000000000005 3700.7500000000005
decision_type=2 2 2 2 2 2 2 2 2 2 2 2 2 2 2 2 2 2 2 2 2 2 2 2 2 2 2 2 2 2
left_child=1 3 20 4 5 7 17 23 12 21 18 -11 -8 14 15 16 19 -3 -9 -4 -2 26 27 25 -25 -1 -5 -14 29 -15
right_child=2 6 13 9 -6 -7 8 10 -10 11 -12 -13 22 28 -16 -17 -18 -19 -20 -21 -22 -23 -24 24 -26 -27 -28 -29 -30 -31
leaf_value=-0.097205851273377483 -0.0033848849427040003 -0.074571084158699952 -0.047517335250186726 -0.02942177099305858 0.19337873038731596 0.0056872623750463935 0.093115527431213416 -0.055402164990658601 -0.11450513078732741 -0.098344873308784705 -0.10103479254135667 0.074100545806336446 -0.067046603882239084 0.0025042237588052958 0.10170371247594211 0.094768028876279248 0.072625514279633027 0.014619533634600699 0.0021266090546610212 0.036934745984436738 0.076051372687352903 0.035746460956623649 0.1259738771545437 -0.088540134861756339 -0.045585250701125436 0.050821852590126892 0.038207487962736875 0.035307128112064705 0.10388200549262223 0.086549815785739836
leaf_weight=303.26690213382244 70.657420068979263 15.124354511499403 19.794899076223373 108.42472304403782 4.0637468993663779 30.102283701300621 65.276975765824318 59.289150148630142 4.6962603181600562 30.296240672469139 33.140021041035652 4.4100372791290274 8.1502021402120572 13.589089810848234 56.950705006718636 38.773779913783073 33.252567753195763 58.07008969783783 43.736098766326904 27.653125748038292 15.439635708928106 31.297201260924339 7.269502878189086 121.66450943052769 83.448587030172348 3.8020659387111655 18.357945039868355 40.112294152379036 297.87666393816471 32.619445458054543
leaf_count=1974 310 70 90 543 17 135 365 295 25 153 199 19 39 65 382 257 215 249 216 153 72 135 45 744 487 22 79 196 2147 214
internal_value=0 -0.0432222 0.0769833 -0.0610852 -0.0724459 -0.0740381 0.0354668 -0.0777397 0.0583731 -0.0208654 -0.0480301 -0.0764327 0.0650935 0.0879207 0.0678042 0.051645 0.030926 -0.00381015 -0.0309802 0.00170208 0.0108603 -0.0086657 0.032154 -0.0856381 -0.0710643 -0.095373 -0.0196292 0.0180224 0.0982352 0.0618335
internal_weight=0 1074 606.607 875.3 682.513 678.45 198.7 648.347 125.505 192.786 136.165 34.7063 120.809 520.51 176.425 119.474 80.7006 73.1944 103.025 47.448 86.0971 158.08 55.532 512.182 205.113 307.069 126.783 48.2625 344.085 46.2085
internal_count=9912 6007 3905 5018 4089 4072 989 3937 670 929 710 172 645 3523 1097 715 458 319 511 243 382 757 280 3227 1231 1996 622 235 2426 279
is_linear=0
shrinkage=0.1


Tree=13
num_leaves=31
num_cat=0
split_feature=17 19 18 211 11 179 19 19 0 3 22 1 18 6 1 11 0 9 10 6 77 9 11 4 1 21 9 6 11 15
split_gain=477.698 127.763 40.3863 37.5884 36.9265 17.4855 17.3768 15.9464 15.3556 10.5273 10.3573 10.122 9.1413 10.5452 8.59362 7.67806 7.52143 7.06049 8.97083 6.98869 6.7924 6.66537 6.57348 6.87444 11.2459 6.5643 6.42423 10.6267 6.83105 7.69776
threshold=1.5000000000000002 3.5000000000000004 6.5000000000000009 1.0000000180025095e-35 334.25000000000006 1.0000000180025095e-35 1.0000000180025095e-35 11.500000000000002 43.500000000000007 4348.2500000000009 -3402.4999999999995 16.500000000000004 15.500000000000002 11516.000000000002 4.5000000000000009 124.25000000000001 45.500000000000007 590.50000000000011 1.5000000000000002 2244.0000000000005 1.0000000180025095e-35 366.25000000000006 8653.7500000000018 1.0000000180025095e-35 10.500000000000002 -785.99999999999989 100.50000000000001 1220.5000000000002 6994.7500000000009 26520.000000000004
decision_type=2 2 2 2 2 2 2 2 2 2 2 2 2 2 2 2 2 2 2 2 2 2 2 2 2 2 2 2 2 2
left_child=1 3 16 4 5 11 8 20 14 12 -8 17 13 -4 25 -13 21 -1 -19 22 26 -2 23 -11 -25 -6 -3 28 29 -28
right_child=2 7 9 -5 6 -7 10 -9 -10 19 -12 15 -14 -15 -16 -17 -18 18 -20 -21 -22 -23 -24 24 -26 -27 27 -29 -30 -31
leaf_value=-0.085890150047797362 -0.04135460754125176 0.052261070084533991 0.0044907196532006479 0.2332878018793407 0.018870531515566447 0.15854235853879256 0.036898443402676666 0.072414164027121322 0.016020466819998049 0.068395418354354184 -0.086858800134416339 -0.050534660416795087 0.088151072818432846 0.074065712504863213 -0.017593539236065225 0.064589418839249346 0.059879141734087239 -0.0624333357068797 0.063772865272602883 0.10072882355658566 -0.10134521230537732 0.023500610975037306 0.10795583582356226 -0.11842848878626676 0.086941703835490727 -0.070183510513689568 -0.01023933723549115 0.077343864573541046 0.098107512497532037 -0.1155984916972525
leaf_weight=409.30913382768631 30.536706149578094 36.005297869443893 40.870926275849342 4.431260257959365 9.2942498475313169 3.1515660583972922 7.476233482360839 66.529041543602943 77.51963110268116 16.920448616147045 70.829339548945427 25.028224840760231 81.265619874000549 46.648587062954903 104.31495453417301 7.5380048006772986 22.240199849009514 42.835528537631035 6.4847398996353141 277.53528769314289 5.0721285343170157 32.940472364425659 16.548038467764854 6.4251351654529554 4.5578269064426422 75.6365697234869 58.638326123356819 15.413960829377173 5.0350265651941291 7.8646531701087943
leaf_count=2728 135 173 213 19 47 13 35 405 341 100 403 135 569 315 542 36 103 251 35 2147 22 144 119 33 27 433 262 70 22 35
internal_value=0 -0.0403519 0.0731673 -0.0571946 -0.0587281 -0.0762515 -0.0336241 0.032699 -0.0214661 0.0842288 -0.0750431 -0.0777579 0.064 0.0415747 -0.0368215 -0.0238872 0.00983478 -0.0815832 -0.0458395 0.0948327 0.0120615 -0.00769902 0.0580203 0.0284061 -0.0332018 -0.060438 0.0167397 0.00203089 -0.0141964 -0.0226991
internal_weight=0 1038.41 576.489 843.849 839.418 494.347 345.071 194.558 266.765 490.772 78.3056 491.196 168.785 87.5195 189.246 32.5662 85.7174 458.629 49.3203 321.987 128.029 63.4772 44.4514 27.9034 10.983 84.9308 122.957 86.952 71.538 66.503
internal_count=9912 6007 3905 5018 4999 3198 1801 989 1363 3523 438 3185 1097 528 1022 171 382 3014 286 2426 584 279 279 160 60 480 562 389 319 297
is_linear=0
shrinkage=0.1


Tree=14
num_leaves=31
num_cat=0
split_feature=17 19 9 9 19 179 11 0 14 9 19 117 216 77 3 23 0 190 1 11 261 259 220 6 20 18 15 11 0 8
split_gain=407.789 130.709 49.9629 21.1502 21.0941 20.9885 20.2219 15.1114 12.7499 11.7019 10.3748 10.3057 10.3142 8.86711 8.33385 8.15258 8.09243 7.62753 8.01287 9.28031 9.16482 7.11182 6.97285 6.69811 6.12123 5.91678 5.45639 5.44604 5.35498 10.8604
threshold=2.5000000000000004 3.5000000000000004 728.00000000000011 6509.0000000000009 11.500000000000002 1.0000000180025095e-35 2210.5000000000005 44.500000000000007 1.0000000180025095e-35 357.25000000000006 1.0000000180025095e-35 1.0000000180025095e-35 1.0000000180025095e-35 1.0000000180025095e-35 4348.2500000000009 1.0000000180025095e-35 46.500000000000007 1.0000000180025095e-35 7.5000000000000009 148.25000000000003 1.0000000180025095e-35 1.0000000180025095e-35 1.0000000180025095e-35 5048.0000000000009 -9831.2499999999982 2.5000000000000004 3107.5000000000005 7166.7500000000009 27.500000000000004 6.5000000000000009
decision_type=2 2 2 2 2 2 2 2 2 2 2 2 2 2 2 2 2 2 2 2 2 2 2 2 2 2 2 2 2 2
left_child=1 2 5 8 11 6 7 17 16 24 15 12 13 27 23 -9 -4 18 20 -20 21 -1 -6 -11 -2 -8 -10 -3 29 -25
right_child=9 4 3 -5 22 -7 25 10 26 14 -12 -13 -14 -15 -16 -17 -18 -19 19 -21 -22 -23 -24 28 -26 -27 -28 -29 -30 -31
leaf_value=-0.092386411715251346 0.11472691926405286 0.022617606494215917 -0.019006184501246366 0.088068063594701679 0.08174230295789893 0.1598851037064509 -0.077811088169144393 0.0017064578168565472 -0.098355047516014329 0.023461711818313823 -0.091287248490231315 -0.088244201784621001 -0.13156794457689946 -0.099167936110981098 0.094457680145495215 -0.054890271801059078 0.033869110038089949 0.068254730294632068 -0.082794240295059121 -0.033630624775166956 0.054854069835685984 0.0030288663686394695 -0.044494210576458089 -0.08966169845083255 -0.031916297355141385 0.030307425551244979 -0.013659285285268667 0.094494943271251977 0.085256940880504242 0.10393943314348049
leaf_weight=307.0306346565485 3.6349892765283611 121.02008136361837 139.21769238263369 20.141490414738655 78.587360173463821 4.1632152646780005 6.213704749941825 55.02671180665493 25.494061470031738 31.011988744139671 30.062731549143791 9.5903316587209684 4.4176293313503256 5.6381467431783667 292.36101197451353 47.354087352752686 36.542612753808498 3.5484511256217948 83.61052405834198 70.99831135571003 4.43176046013832 8.0156331360340101 4.633622244000434 5.4632688015699369 13.123014129698275 27.298164382576942 10.840970322489737 11.547173969447611 87.043217644095421 6.1698152273893356
leaf_count=2156 22 563 704 124 502 17 29 277 139 188 200 45 19 25 2335 247 162 23 594 429 30 56 28 31 69 123 51 66 613 45
internal_value=0 -0.0319492 -0.0496555 -0.00986088 0.0342322 -0.0639229 -0.0653707 -0.0695251 -0.0191606 0.0818446 -0.0396374 0.0120995 0.0188468 0.0236547 0.0850986 -0.0244712 -0.0080128 -0.0778126 -0.0789059 -0.0602177 -0.08795 -0.0899588 0.0747136 0.0640002 -0.000107823 0.0102603 -0.0730851 0.0288784 0.0767406 0.0130181
internal_weight=0 1115.43 879.991 232.237 235.434 647.754 643.591 610.079 212.095 438.807 132.444 152.213 142.623 138.205 422.049 102.381 175.76 477.635 474.087 154.609 319.478 315.046 83.221 129.688 16.758 33.5119 36.335 132.567 98.6763 11.6331
internal_count=9912 6609 5361 1180 1248 4181 4164 4012 1056 3303 724 718 673 654 3212 524 866 3288 3265 1023 2242 2212 530 877 91 152 190 629 689 76
is_linear=0
shrinkage=0.1


Tree=15
num_leaves=31
num_cat=0
split_feature=17 19 9 249 0 9 19 144 9 137 216 11 14 23 3 20 261 190 1 8 0 19 21 19 13 0 15 13 22 259
split_gain=349.37 110.325 44.2714 20.5623 20.3966 19.3954 14.3213 12.7935 10.6147 10.3451 10.9233 9.25784 9.0122 8.48055 8.21423 8.15246 8.02239 8.1073 8.08327 7.96775 8.23466 7.65923 7.45055 7.09987 12.8976 8.3197 6.57998 7.87201 6.3957 6.38922
threshold=2.5000000000000004 5.5000000000000009 728.00000000000011 1.0000000180025095e-35 43.500000000000007 5835.2500000000009 14.500000000000002 1.0000000180025095e-35 357.25000000000006 1.0000000180025095e-35 1.0000000180025095e-35 2210.5000000000005 2.5000000000000004 1.0000000180025095e-35 4348.2500000000009 2242.5000000000005 1.0000000180025095e-35 1.0000000180025095e-35 7.5000000000000009 2.5000000000000004 26.500000000000004 1.0000000180025095e-35 2613.7500000000005 1.0000000180025095e-35 10462.500000000002 46.500000000000007 13085.000000000002 26202.500000000004 -1972.4999999999998 1.0000000180025095e-35
decision_type=2 2 2 2 2 2 2 2 2 2 2 2 2 2 2 2 2 2 2 2 2 2 2 2 2 2 2 2 2 2
left_child=1 2 3 4 11 23 7 9 -2 10 15 12 16 22 -10 19 17 18 29 26 -21 -20 -6 25 28 -4 27 -3 -25 -1
right_child=8 6 5 -5 13 -7 -8 -9 14 -11 -12 -13 -14 -15 -16 -17 -18 -19 21 20 -22 -23 -24 24 -26 -27 -28 -29 -30 -31
leaf_value=-0.090062878237257615 -2.0012524061094444e-05 -0.060546007399615492 -0.01912388609939393 0.16000119603131607 -0.017514226647567504 0.07018892165675221 0.092220460522872777 -0.15153872902199114 0.060190891358403623 -0.12767844415771404 -0.11421334294754391 -0.0074234245954458199 0.026166651382534673 -0.054808639035093532 0.091175968257526246 0.094328387445282713 0.051100049729827249 0.076058503633607735 -0.045158701153454106 -0.13396981953381612 0.011575939354670618 -0.098285850430403568 0.094728582194131161 -0.014514134952488548 0.051660479961633143 0.036826857358492344 0.082758103787715531 0.05418853626715301 -0.093821777837618858 0.0058240351112635305
leaf_weight=281.63916175067425 16.646540902554989 8.9025813788175601 128.04144958406687 4.2948108613491049 88.602782145142555 27.866771161556244 41.296747133135796 3.9712593555450431 124.492206774652 4.0191103443503371 4.730903983116149 22.331842675805092 8.9122811555862409 76.2268086373806 273.5743073374033 23.153453327715397 4.956503599882125 3.4403273910284033 106.91012409329414 4.2616504728794089 44.251840144395828 36.36728772521019 6.3368216305971137 14.541339121758936 10.635071828961371 33.537461176514626 33.558277979493141 18.215398296713829 33.814313054084778 7.1249076128005973
leaf_count=2111 91 38 650 18 484 168 296 19 877 21 21 105 39 421 2335 130 32 22 730 20 220 254 27 68 48 147 179 102 188 51
internal_value=0 -0.0297373 -0.0443039 -0.0580797 -0.0595367 -0.00841983 0.0402645 0.0254737 0.078214 0.030456 0.0350926 -0.0702669 -0.0733901 -0.0299674 0.0814856 0.0404299 -0.0754047 -0.0768445 -0.0780621 0.0290008 -0.00120948 -0.0586437 -0.0100225 -0.0183513 -0.0480442 -0.0075107 0.0531554 0.0165222 -0.0699727 -0.087697
internal_weight=0 1081.94 895.58 647.144 642.849 248.436 186.361 145.064 414.713 141.093 137.074 471.682 449.351 171.166 398.067 132.343 440.438 435.482 432.041 109.19 48.5135 143.277 94.9396 220.57 58.9907 161.579 60.6763 27.118 48.3557 288.764
internal_count=9912 6609 5563 4294 4276 1269 1046 750 3303 731 710 3344 3239 932 3212 689 3200 3168 3146 559 240 984 511 1101 304 797 319 140 256 2162
is_linear=0
shrinkage=0.1


Tree=16
num_leaves=31
num_cat=0
split_feature=17 19 127 11 211 42 12 58 179 11 249 11 216 18 3 20 1 14 117 77 137 13 21 21 14 19 0 23 220 3
split_gain=298.638 92.8419 44.1893 36.9854 29.4772 21.0453 16.7867 15.754 15.7398 15.0171 12.9564 12.2275 11.5662 10.8331 13.8711 15.2433 9.17772 9.59273 8.3234 8.86139 9.09567 7.61876 7.48635 7.30619 7.00202 6.6971 8.96055 6.85487 6.38414 6.09094
threshold=2.5000000000000004 3.5000000000000004 1.0000000180025095e-35 1294.0000000000002 1.0000000180025095e-35 1.0000000180025095e-35 7.5000000000000009 1.0000000180025095e-35 1.0000000180025095e-35 8953.0000000000018 1.0000000180025095e-35 153.75000000000003 1.0000000180025095e-35 9.5000000000000018 12379.000000000002 25000.000000000004 4.5000000000000009 1.0000000180025095e-35 1.0000000180025095e-35 1.0000000180025095e-35 1.0000000180025095e-35 19597.500000000004 -4113.2499999999991 -488.24999999999994 4.5000000000000009 1.0000000180025095e-35 43.500000000000007 1.0000000180025095e-35 1.0000000180025095e-35 4348.2500000000009
decision_type=2 2 2 2 2 2 2 2 2 2 2 2 2 2 2 2 2 2 2 2 2 2 2 2 2 2 2 2 2 2
left_child=1 2 3 4 5 7 12 8 10 22 11 -1 18 14 15 -2 23 -18 19 20 24 -20 -5 -13 -3 26 -24 -27 -8 -15
right_child=13 6 -4 9 -6 -7 28 -9 -10 -11 -12 16 -14 29 -16 -17 17 -19 21 -21 -22 -23 25 -25 -26 27 -28 -29 -30 -31
leaf_value=-0.075284701214130043 -0.04132062479731026 0.018221927337902188 0.27925946685876901 0.11758873533741954 0.21846199890549056 0.21122491485057232 0.072976872835766995 0.12702793168546661 0.1276520670115385 0.083911606352418372 0.13232468075334539 -0.0061938811949856128 -0.14003848326640472 0.061875928381695727 0.089376666344086739 0.12034233084930734 -0.020265035665574204 -0.083757096542434989 -0.15519447296545852 -0.10582151941801339 -0.11023336855948607 0.0098475863579150433 -0.024879216174089558 -0.081936420226102591 0.07408298630816805 -0.10199602105894055 0.031707867036205789 -0.011034911569896397 -0.049203463043097286 0.090990919812297677
leaf_weight=353.32397804409266 26.874197252094746 89.400188647210598 4.2284656986594191 4.1633183956146231 3.8760929107666007 2.886786885559558 75.400788299739361 4.5000823885202399 4.4026381224393836 16.897454157471657 3.4085252285003653 14.994689077138899 5.0268022119998923 105.38396565616131 27.196926139295101 7.4492788910865775 130.59817206114531 29.097811825573444 5.3112960457801801 5.2437562942504874 4.6555104702711096 5.9085617661476135 95.249873638153076 84.522114224731922 29.958576545119286 17.283723041415215 39.624685548245907 15.912543490529059 4.5337597802281371 225.83548351377249
leaf_count=2640 145 424 23 29 17 18 518 19 18 113 14 84 23 798 207 51 761 203 24 24 22 31 464 616 154 87 174 81 28 2102
internal_value=0 -0.0276411 -0.0431824 -0.0448436 -0.0564599 -0.0581575 0.0292308 -0.0594021 -0.0607544 -0.0060505 -0.0621011 -0.063183 0.00900538 0.0745697 0.0360332 -0.00623466 -0.0466877 -0.0318338 0.0143387 0.0215102 0.0268943 -0.0682806 -0.0148765 -0.0705239 0.0322428 -0.0181578 -0.00825454 -0.0583941 0.066047 0.0817274
internal_weight=0 1050.41 824.971 820.742 631.611 627.735 225.439 624.848 620.348 189.132 615.945 612.537 145.505 392.74 61.5204 34.3235 259.213 159.696 140.478 129.258 124.014 11.2199 172.234 99.5168 119.359 168.071 134.875 33.1963 79.9345 331.219
internal_count=9912 6609 5361 5338 4390 4373 1248 4355 4336 948 4318 4304 702 3303 403 196 1664 964 679 624 600 55 835 700 578 806 638 168 546 2900
is_linear=0
shrinkage=0.1


Tree=17
num_leaves=31
num_cat=0
split_feature=17 13 11 127 211 22 179 9 273 19 42 0 9 19 144 18 6 20 11 1 19 9 6 10 20 0 21 11 8 225
split_gain=255.585 78.1403 35.7417 30.3321 21.1266 16.7774 17.8844 16.7291 14.8797 13.9752 16.8526 15.4034 13.7397 10.2851 10.7951 10.1517 16.616 18.2228 6.9919 6.77217 6.10733 6.05603 5.84373 7.42539 7.18431 5.52926 5.25309 5.09988 7.10807 4.94916
threshold=2.5000000000000004 20067.500000000004 1294.0000000000002 1.0000000180025095e-35 1.0000000180025095e-35 -1972.4999999999998 1.0000000180025095e-35 5835.2500000000009 1.0000000180025095e-35 1.0000000180025095e-35 1.0000000180025095e-35 44.500000000000007 684.75000000000011 15.500000000000002 1.0000000180025095e-35 10.500000000000002 17986.250000000004 -7768.4999999999991 148.25000000000003 12.500000000000002 6.5000000000000009 254.50000000000003 5314.5000000000009 4.5000000000000009 1551.0000000000002 30.500000000000004 1961.5000000000002 8953.0000000000018 4.5000000000000009 1.0000000180025095e-35
decision_type=2 2 2 2 2 2 2 2 2 2 2 2 2 2 2 2 2 2 2 2 2 2 2 2 2 2 2 2 2 2
left_child=1 2 3 4 5 -1 8 27 9 10 11 12 18 14 19 16 17 -2 -7 20 -3 -18 23 -17 -25 -9 -26 -4 -29 -13
right_child=15 13 7 -5 -6 6 -8 25 -10 -11 -12 29 -14 -15 -16 22 21 -19 -20 -21 -22 -23 -24 24 26 -27 -28 28 -30 -31
leaf_value=0.0098589262197435468 0.086889173283765692 0.092795860816585848 -0.015749773529786404 0.27390396024794827 0.1761546953900924 -0.082853843396778259 0.14039506469297566 -0.020728890176581798 0.16972753316337547 -0.086889373985104351 0.18374451395883704 -0.013947430579398783 -0.01768029585705078 0.094314933819688265 -0.12868563631978411 -0.081310348972135349 -0.019108656356359416 -0.04847130517641722 -0.050987584873594775 0.06774923368497833 0.0061595172678492668 0.10549067850546177 0.087846440543134341 0.075000335254219661 0.046156452370192586 0.097207445174246024 -0.11157883985264122 -0.050818386204800663 0.128523605158921 -0.10347639862579716
leaf_weight=41.511535808444023 15.203748874366282 9.2548332288861257 180.14003653079271 2.9001388475298873 4.0969155728816977 182.77814913541079 4.6083999872207633 4.9310021623969105 2.8717767372727385 134.07273097336292 3.0577878206968299 104.10158237814903 58.257839404046535 29.249592565000057 4.2321626991033545 3.7886454090476027 4.4531667530536643 28.75722349435091 110.46996242552996 39.155341662466526 67.351836018264294 31.449921436607838 220.54353046417236 58.954407684504986 4.8187475576996786 20.51116868108511 3.7578240111470222 3.5776727050542814 5.780936636030674 6.563849225640296
leaf_count=207 118 42 857 15 18 1559 19 29 18 1023 17 550 342 235 20 27 25 164 809 232 387 279 2121 510 33 139 26 20 39 32
internal_value=0 -0.0257088 -0.0371739 -0.0487807 -0.0502152 -0.0516457 -0.0558534 -0.00178824 -0.0573553 -0.0584435 -0.0502457 -0.0517939 -0.0620373 0.0411439 0.028183 0.0711553 0.0395637 -0.00165736 -0.0708495 0.0339179 0.016626 0.0900363 0.0797998 0.0549171 0.0625598 0.0743499 -0.0229553 -0.0120106 0.0599635 -0.0192576
internal_weight=0 1019.48 870.231 655.291 652.391 648.294 606.782 214.941 602.174 599.302 465.229 462.171 351.506 149.244 119.994 371.727 79.8641 43.961 293.248 115.762 76.6067 35.9031 291.863 71.3196 67.531 25.4422 8.57657 189.499 9.35861 110.665
internal_count=9912 6609 5693 4609 4594 4576 4369 1084 4350 4332 3309 3292 2710 916 681 3303 586 282 2368 661 429 304 2717 596 569 168 59 916 59 582
is_linear=0
shrinkage=0.1


Tree=18
num_leaves=31
num_cat=0
split_feature=17 19 136 127 221 83 11 211 11 19 19 3 18 20 0 179 144 1 11 190 9 20 10 6 9 1 21 22 22 0
split_gain=218.731 66.5005 32.1958 30.2354 27.7844 27.3874 26.9377 18.2614 15.166 14.1268 10.0575 9.84528 13.8293 11.8091 9.83672 9.40097 8.60315 9.1662 7.77822 7.65932 7.3479 9.15598 8.64492 6.93111 11.2641 6.65603 8.04083 6.49041 6.75983 5.9627
threshold=2.5000000000000004 3.5000000000000004 1.0000000180025095e-35 1.0000000180025095e-35 1.0000000180025095e-35 1.0000000180025095e-35 334.25000000000006 1.0000000180025095e-35 8953.0000000000018 14.500000000000002 1.0000000180025095e-35 6472.2500000000009 13.500000000000002 11640.750000000002 47.500000000000007 1.0000000180025095e-35 1.0000000180025095e-35 13.500000000000002 9457.7500000000018 1.0000000180025095e-35 728.00000000000011 2158.2500000000005 1.5000000000000002 1164.2500000000002 100.50000000000001 4.5000000000000009 -785.99999999999989 5775.0000000000009 -1972.4999999999998 35.500000000000007
decision_type=2 2 2 2 2 2 2 2 2 2 2 2 2 2 2 2 2 2 2 2 2 2 2 2 2 2 2 2 2 2
left_child=1 2 3 4 5 6 7 15 10 16 14 12 13 18 25 19 17 23 -2 20 -1 22 -22 24 -3 26 29 28 -12 -8
right_child=11 9 -4 -5 -6 -7 8 -9 -10 -11 27 -13 -14 -15 -16 -17 -18 -19 -20 -21 21 -23 -24 -25 -26 -27 -28 -29 -30 -31
leaf_value=-0.070103634039024712 -0.042346942901118276 0.042681404250446607 0.22710284405339545 0.22170860859078481 0.20920015929187838 0.25441015450261312 0.076443496572254813 0.19255883308829685 0.075123540065653485 0.083085780670317966 -0.0077289351893109846 0.082242303794562557 0.074366710360391275 0.060264628785680056 0.022585784811164099 0.11132972402579491 -0.12107631622049229 0.05695276640609407 0.11990422257504507 0.074726748901205023 -0.063821257027440445 0.096251483800021589 0.067287191418814188 0.042810025889750032 -0.031248374302659299 -0.013325110357365472 -0.061650080588555062 0.056854070892722465 -0.084768287494523795 -0.072554158905056787
leaf_weight=352.98916733264923 30.9994295835495 29.353141278028488 4.569440431892871 4.4186758175492278 4.4258611649274817 3.1027941331267348 8.0113519430160505 2.824829325079917 15.070698522031305 35.186992071568966 14.502408079802988 202.91481943428516 86.286772549152374 28.467852249741554 47.954210102558136 3.0844247937202445 4.6052591353654853 43.972726449370384 3.2659220024943343 3.9451251849532118 32.740010440349579 5.3188259527087203 5.9419522136449805 34.581756234169006 69.18313879519701 131.14593846350908 73.301931746304035 4.4194137901067725 53.064643889665604 4.0404616594314566
leaf_count=2932 166 154 22 23 23 16 41 12 111 296 78 2070 799 242 221 13 21 246 26 26 204 27 30 196 335 695 475 26 365 21
internal_value=0 -0.0238548 -0.0375544 -0.0391244 -0.0406292 -0.0420813 -0.0432944 -0.060813 -0.0230181 0.0250907 -0.0274143 0.0679089 0.0483917 0.0126643 -0.0183936 -0.0625845 0.0138594 0.0173684 -0.0268824 -0.0639225 -0.0653003 -0.0267665 -0.0436816 0.00429257 -0.00922531 -0.0274704 -0.0492047 -0.0605534 -0.0682328 0.0264909
internal_weight=0 991.755 774.872 770.303 765.884 761.458 758.355 406.844 351.511 216.883 336.44 351.935 149.02 62.7332 264.454 404.02 181.696 177.091 34.2654 400.935 396.99 44.0008 38.682 133.118 98.5363 216.5 85.3537 71.9865 67.5671 12.0518
internal_count=9912 6609 5361 5339 5316 5293 5277 3244 2033 1248 1922 3303 1233 434 1453 3232 952 931 192 3219 3193 261 234 685 489 1232 537 469 443 62
is_linear=0
shrinkage=0.1


Tree=19
num_leaves=31
num_cat=0
split_feature=17 13 81 8 221 268 136 127 256 249 58 211 195 14 179 190 178 11 19 1 259 216 6 10 20 220 19 21 144 18
split_gain=186.805 56.7389 28.4261 27.8173 27.7036 25.5883 24.5072 22.7137 20.2296 20.4071 19.2002 18.9549 18.1388 17.8363 17.2349 13.9012 13.4139 10.4502 10.0128 12.5573 9.83271 9.63147 9.44782 13.7459 10.1503 9.25674 10.3019 8.68563 8.57684 8.69216
threshold=2.5000000000000004 22647.500000000004 1.0000000180025095e-35 4.5000000000000009 1.0000000180025095e-35 1.0000000180025095e-35 1.0000000180025095e-35 1.0000000180025095e-35 1.0000000180025095e-35 1.0000000180025095e-35 1.0000000180025095e-35 1.0000000180025095e-35 1.0000000180025095e-35 2.5000000000000004 1.0000000180025095e-35 1.0000000180025095e-35 1.0000000180025095e-35 9069.7500000000018 1.0000000180025095e-35 4.5000000000000009 1.0000000180025095e-35 1.0000000180025095e-35 7005.0000000000009 4.5000000000000009 -15602.749999999998 1.0000000180025095e-35 14.500000000000002 -5295.7499999999991 1.0000000180025095e-35 3.5000000000000004
decision_type=2 2 2 2 2 2 2 2 2 2 2 2 2 2 2 2 2 2 2 2 2 2 2 2 2 2 2 2 2 2
left_child=1 2 3 4 5 6 7 8 9 10 11 12 13 14 15 16 18 27 19 -1 -20 25 23 24 -2 26 28 -5 29 -3
right_child=22 21 -4 17 -6 -7 -8 -9 -10 -11 -12 -13 -14 -15 -16 -17 -18 -19 20 -21 -22 -23 -24 -25 -26 -27 -28 -29 -30 -31
leaf_value=-0.072494478629872822 0.089451455745623909 0.078693590980779674 0.24878392243413727 0.13637798654571739 0.24871788900048727 0.25450681024528043 0.21087682056407275 0.22069490618565918 0.22083120116282615 0.13853739219964872 0.12677351854622113 0.15479280485964861 0.17998420431048651 0.011432643830177482 0.12023719420921285 0.057062029976383627 0.14065638867537825 0.10086504233167609 -0.086550174516736675 -0.039796709944109589 0.0861540297362514 -0.11425542870465295 0.076214123723802263 0.058009428963824064 -0.071108090479450589 -0.08469108866816677 0.10077359219697812 -0.0035058808684134586 -0.10437773563703996 0.015318047213023151
leaf_weight=195.05053260922432 5.2154049500823048 34.629937030375004 3.5924791023135176 4.725286114960908 3.3180786818265906 2.9208024740219107 3.8102966248989096 3.2421018481254569 2.8602973744273177 5.9661608338356009 6.2892169654369345 4.5468410700559607 3.4114103764295569 42.735759474337101 5.5497978180646887 10.560297809541224 3.3603678941726676 13.305427737534044 143.38100601732731 295.22524500638247 3.3741864860057822 4.0303108990192404 226.69763916730881 85.89068903028965 16.067492343485355 5.466362088918685 28.77274127304554 73.214931838214397 4.364015817642211 57.699714817106724
leaf_count=1610 39 215 19 37 16 15 17 15 14 25 28 20 16 194 24 61 15 107 1146 1965 26 21 2363 815 86 33 266 360 19 325
internal_value=0 -0.0221284 -0.0319016 -0.0331212 -0.0395811 -0.0408874 -0.0420704 -0.0433987 -0.0445841 -0.0456393 -0.0471794 -0.0487264 -0.0500434 -0.0511656 -0.0552405 -0.0567366 -0.0586132 0.0189576 -0.0596643 -0.0528051 -0.0825794 0.0380074 0.0646478 0.0401822 -0.0317627 0.0426942 0.0482442 0.00497487 0.0326133 0.0390882
internal_weight=0 965.404 830.441 826.848 735.602 732.284 729.364 725.553 722.311 719.451 713.485 707.195 702.649 699.237 656.501 650.952 640.391 91.2456 637.031 490.276 146.755 134.963 333.871 107.174 21.2829 130.933 125.466 77.9402 96.6937 92.3297
internal_count=9912 6609 5730 5711 5207 5191 5176 5159 5144 5130 5105 5077 5057 5041 4847 4823 4762 504 4747 3575 1172 879 3303 940 125 858 825 397 559 540
is_linear=0
shrinkage=0.1


Tree=20
num_leaves=31
num_cat=0
split_feature=17 13 11 136 9 221 127 259 58 22 179 3 18 20 22 220 179 249 178 19 14 13 216 3 4 19 3 0 18 19
split_gain=159.188 47.6446 25.4673 17.1036 16.7642 16.9171 14.825 11.8724 10.9755 10.1875 10.6411 9.57007 12.4038 9.14987 7.97144 13.2199 7.76995 7.79392 7.70181 7.66222 8.59113 10.4243 7.59148 7.56793 9.7317 7.3467 7.2144 6.96281 6.80477 6.54232
threshold=2.5000000000000004 22647.500000000004 148.25000000000003 1.0000000180025095e-35 5835.2500000000009 1.0000000180025095e-35 1.0000000180025095e-35 1.0000000180025095e-35 1.0000000180025095e-35 -2139.9999999999995 1.0000000180025095e-35 6472.2500000000009 13.500000000000002 11640.750000000002 102115.00000000001 1.0000000180025095e-35 1.0000000180025095e-35 1.0000000180025095e-35 1.0000000180025095e-35 1.0000000180025095e-35 3.5000000000000004 14417.500000000002 1.0000000180025095e-35 2215.0000000000005 1.0000000180025095e-35 14.500000000000002 8277.2500000000018 48.500000000000007 3.5000000000000004 6.5000000000000009
decision_type=2 2 2 2 2 2 2 2 2 2 2 2 2 2 2 2 2 2 2 2 2 2 2 2 2 2 2 2 2 2
left_child=1 2 9 4 5 6 7 8 16 -1 27 12 13 -2 15 22 17 18 19 23 -21 -22 25 -4 -25 28 -26 -11 -3 -30
right_child=11 14 3 -5 -6 -7 -8 -9 -10 10 -12 -13 -14 -15 -16 -17 -18 -19 -20 20 21 -23 -24 24 26 -27 -28 -29 29 -31
leaf_value=0.022003387919604052 -0.027138035157535236 0.062649860261964854 -0.030012319891892333 0.18330237068131122 0.063139520453324272 0.18087289035549892 0.18857283492802895 0.074069549871253235 0.1067798686254265 -0.063530116895031838 0.15977983075619315 0.076475267870544913 0.067832127332848657 0.051846262307153293 0.10787784869274229 -0.14962891589159241 0.082688484575908716 0.10103270048388016 0.1073865116745165 -0.066589828961262129 0.053125630059464406 -0.12180286065740409 -0.099098774386891755 0.071475232634797992 0.047920287565316709 0.096855383389732555 -0.12853832760015196 -0.020354973403955472 0.11268572828152229 -0.0044568876115901176
leaf_weight=17.864088125526905 33.760174714028835 33.636525340378284 270.38522456586361 4.3049245327711096 24.804207667708397 4.1021139323711386 3.2838118374347678 11.85188042372465 6.0144661888480178 259.28037828952074 2.2748764604330054 180.50099278986454 77.462897509336472 25.933084703981876 13.561135120689867 4.0940575450658789 6.1125985831022254 4.4329122900962821 3.9122624695301047 99.939985893666744 13.371938705444338 4.5712153017520896 4.173666536808013 16.944897212088108 3.9781696051359194 17.929002963006496 5.5484038591384888 43.638958819210529 5.2408783659338942 52.797331497073174
leaf_count=90 192 212 1674 21 178 19 16 65 28 2378 10 2070 799 242 126 22 28 19 17 684 61 20 21 86 19 176 33 284 26 296
internal_value=0 -0.0205594 -0.0296566 -0.0151331 -0.0169155 -0.021285 -0.0231264 -0.0246814 -0.0273706 -0.0513958 -0.0556921 0.061345 0.0414332 0.00717583 0.0352717 0.0269184 -0.0292505 -0.0308678 -0.0322644 -0.0335817 -0.0551511 0.00856068 0.0332711 -0.0250164 0.0260126 0.0383117 -0.0548516 -0.0573102 0.0268622 0.00612115
internal_weight=0 938.05 806.617 483.559 479.254 454.45 450.348 447.064 435.212 323.058 305.194 317.657 137.156 59.6933 131.433 117.871 429.198 423.085 418.652 414.74 117.883 17.9432 113.777 296.857 26.4715 109.604 9.52657 302.919 91.6747 58.0382
internal_count=9912 6609 5730 2968 2947 2769 2750 2734 2669 2762 2672 3303 1233 434 879 753 2641 2613 2594 2577 765 81 731 1812 138 710 52 2662 534 322
is_linear=0
shrinkage=0.1


Tree=21
num_leaves=31
num_cat=0
split_feature=18 13 83 6 139 268 220 211 221 127 136 58 256 11 249 18 22 19 0 9 12 15 259 22 20 6 178 3 179 12
split_gain=136.055 38.5889 25.036 22.2552 21.7394 19.4432 19.1596 18.6788 17.8867 17.7208 17.513 15.9926 15.9471 14.5285 13.8459 13.6032 11.2774 11.0904 9.71697 8.89941 8.8236 10.1172 8.62961 7.75949 8.2693 7.74765 6.96321 6.84897 6.82073 7.77239
threshold=9.5000000000000018 10462.500000000002 1.0000000180025095e-35 4458.7500000000009 1.0000000180025095e-35 1.0000000180025095e-35 1.0000000180025095e-35 1.0000000180025095e-35 1.0000000180025095e-35 1.0000000180025095e-35 1.0000000180025095e-35 1.0000000180025095e-35 1.0000000180025095e-35 8772.2500000000018 1.0000000180025095e-35 2.5000000000000004 -6117.4999999999991 14.500000000000002 26.500000000000004 2098.0000000000005 7.5000000000000009 24792.500000000004 1.0000000180025095e-35 -2232.4999999999995 1001.5000000000001 1190.5000000000002 1.0000000180025095e-35 1558.0000000000002 1.0000000180025095e-35 1.5000000000000002
decision_type=2 2 2 2 2 2 2 2 2 2 2 2 2 2 2 2 2 2 2 2 2 2 2 2 2 2 2 2 2 2
left_child=1 2 4 13 5 7 17 8 9 10 11 12 14 20 15 16 -1 19 -15 -3 21 23 26 -2 -25 -21 27 28 29 -17
right_child=3 6 -4 -5 -6 -7 -8 -9 -10 -11 -12 -13 -14 18 -16 22 -18 -19 -20 25 -22 -23 -24 24 -26 -27 -28 -29 -30 -31
leaf_value=0.084454553675680014 0.08151037927418793 0.031906282364407346 0.25234903262054886 0.069860508721955816 0.25112571521121396 0.21210474523745773 -0.1443345301926611 0.16098705412911471 0.18944180308995962 0.18961826410223875 0.17211669542298874 0.11675673486794125 0.19271027114441289 -0.14953703283669115 0.11657932193806392 -0.038816842720307748 -0.061741441442645484 0.09373382627167913 0.091035847819654209 -0.091126330718146964 0.068730585517792264 -0.12177393714147677 0.052570118641997288 0.0031118491498183772 -0.088704272274307536 0.034454532750243599 0.11753404305099427 0.0028653443694840897 0.10227965821234571 -0.12533947419062913
leaf_weight=5.367764174938201 10.426300279796122 96.878694944083691 3.0827208682894698 227.90476891770959 2.6774947941303244 3.1856995746493331 6.4466468170285216 4.8034690432250491 3.4735186100006095 3.4012806564569464 3.8987333700060836 6.4098717868328086 2.8832162022590628 1.7738016843795765 5.3938748687505713 268.95935229212046 310.06722047924995 24.09968064725399 31.397230584174395 12.234710969030859 17.292024970054626 7.3300014808773986 12.083961941301821 67.160421684384346 11.486854657530783 8.208964526653288 3.0251991823315612 41.866919316351414 3.3081301897764197 10.799212977290152
leaf_count=24 65 562 17 2615 14 19 36 25 18 16 20 30 16 15 24 1902 2727 244 317 57 143 43 75 395 56 65 14 269 15 74
internal_value=0 -0.0221251 -0.0319987 0.0502983 -0.0332661 -0.0343714 0.0242611 -0.0355164 -0.0369026 -0.0380631 -0.039212 -0.0404414 -0.0419595 0.0199421 -0.0429833 -0.0442963 -0.0592536 0.0319464 0.0781714 0.0192544 0.0029535 -0.00884502 -0.0304214 0.000448076 -0.0102984 -0.0407005 -0.0334793 -0.0348853 -0.0404688 -0.0421568
internal_weight=0 842.556 694.688 374.771 691.605 688.927 147.869 685.742 680.938 677.465 674.063 670.165 663.755 146.867 660.872 655.478 315.435 141.422 33.171 117.322 113.696 96.4036 340.043 89.0736 78.6473 20.4437 327.959 324.934 283.067 279.759
internal_count=9912 6263 5299 3649 5282 5268 964 5249 5224 5206 5190 5170 5140 1034 5124 5100 2751 928 332 684 702 559 2349 516 451 122 2274 2260 1991 1976
is_linear=0
shrinkage=0.1


Tree=22
num_leaves=31
num_cat=0
split_feature=17 13 81 11 9 136 221 127 15 3 11 8 20 259 0 58 22 220 11 3 12 19 216 144 16 3 6 10 22 1
split_gain=115.902 34.2866 22.8103 19.8534 12.5336 12.2618 12.4152 11.0043 9.62507 9.18382 11.3926 10.0328 10.2373 8.93325 7.97513 7.90501 7.21022 8.63713 7.03989 9.10369 6.48425 6.38863 6.22244 6.43623 6.20252 7.05804 6.10767 6.3167 6.02921 5.97265
threshold=2.5000000000000004 23167.500000000004 1.0000000180025095e-35 153.75000000000003 5835.2500000000009 1.0000000180025095e-35 1.0000000180025095e-35 1.0000000180025095e-35 4340.0000000000009 6472.2500000000009 9719.0000000000018 5.5000000000000009 11640.750000000002 1.0000000180025095e-35 38.500000000000007 1.0000000180025095e-35 102115.00000000001 1.0000000180025095e-35 1197.5000000000002 12528.750000000002 4.5000000000000009 1.0000000180025095e-35 1.0000000180025095e-35 1.0000000180025095e-35 1.5000000000000002 2215.0000000000005 9922.7500000000018 6.5000000000000009 -2497.4999999999995 10.500000000000002
decision_type=2 2 2 2 2 2 2 2 2 2 2 2 2 2 2 2 2 2 2 2 2 2 2 2 2 2 2 2 2 2
left_child=1 2 3 8 5 6 7 13 14 10 11 12 26 15 -1 24 17 22 19 -11 29 -16 23 -3 25 -5 27 -2 -27 -13
right_child=9 16 -4 4 -6 -7 -8 -9 -10 18 -12 20 -14 -15 21 -17 -18 -19 -20 -21 -22 -23 -24 -25 -26 28 -28 -29 -30 -31
leaf_value=-0.065706311380155785 0.0076843359145128218 0.039630907372552628 0.2265347324601312 -0.02903853464470595 0.057454102524588484 0.16080180761068152 0.14907565358045122 0.16669008825105772 0.019891050087093562 -0.14482801625974126 0.089978000607697839 -0.014803023989245254 0.04710835303194446 0.062665336312066972 -0.01944547656921336 0.09229217534276743 0.10497170643454999 -0.11256916017985803 0.077140134589663331 0.048830385814822796 0.089414464754500156 -0.075263893445034091 -0.090095063172915324 -0.071040506543788268 -0.14332991081429644 -0.090888821099198158 -0.15657753284752382 -0.10387988060165132 0.033428786806734674 0.070341400085745728
leaf_weight=163.63250967115164 13.974822029471403 98.164059773087502 3.5726487189531317 367.91892028599977 23.526543632149696 3.824250452220439 4.3481679409742346 3.1092246770858756 20.317532747983932 3.2432627677917472 29.154470004141331 20.457593128085136 15.336941614747046 12.073167629539965 93.210971973836422 5.7054960727691642 11.927765108644961 4.4979962408542624 148.96534080430865 9.6498222723603231 21.637086607515812 26.287424951791763 4.225225403904914 5.5520627722144118 4.4741258621215811 4.4648733884096137 4.8744714856147757 7.9690715074539176 30.899926364421844 13.793513476848601
leaf_count=1735 62 674 19 2392 179 18 20 16 96 27 348 207 148 65 705 28 126 22 1945 98 236 252 21 31 21 21 30 54 168 148
internal_value=0 -0.0176622 -0.0255562 -0.0267353 -0.0136456 -0.017475 -0.0190495 -0.020755 -0.046593 0.0552033 0.0350963 0.0187765 -0.0180564 -0.0221246 -0.0513639 -0.0246005 0.031045 0.0232027 0.0710046 0.000115506 0.0465588 -0.0317245 0.0288605 0.0337065 -0.0262361 -0.024937 -0.055323 -0.032831 0.0177335 0.0194861
internal_weight=0 891.733 767.366 763.793 460.345 436.818 432.994 428.646 303.448 289.056 127.198 98.0435 42.1553 425.537 283.131 413.463 124.367 112.439 161.858 12.8931 55.8882 119.498 107.941 103.716 407.758 403.284 26.8184 21.9439 35.3648 34.2511
internal_count=9912 6609 5735 5716 2928 2749 2731 2711 2788 3303 1233 885 294 2695 2692 2630 874 748 2070 125 591 957 726 705 2602 2581 146 116 189 355
is_linear=0
shrinkage=0.1


Tree=23
num_leaves=31
num_cat=0
split_feature=17 13 159 139 18 9 211 249 1 261 22 11 3 8 6 19 0 22 259 6 220 4 11 22 1 34 22 22 10 8
split_gain=98.4511 28.5672 21.3545 19.3201 18.1102 11.8903 11.2212 11.2611 9.41492 10.0041 9.13972 8.92099 12.8955 10.9208 11.5192 8.52915 8.16362 8.10377 7.94255 7.43655 7.13779 6.81243 6.66602 6.55163 6.29682 6.49067 6.23352 6.2195 6.20692 7.10411
threshold=2.5000000000000004 9767.5000000000018 1.0000000180025095e-35 1.0000000180025095e-35 3.5000000000000004 6509.0000000000009 1.0000000180025095e-35 1.0000000180025095e-35 10.500000000000002 1.0000000180025095e-35 -6392.4999999999991 10399.750000000002 12379.000000000002 5.5000000000000009 14043.500000000002 15.500000000000002 49.500000000000007 1.0000000180025095e-35 1.0000000180025095e-35 6244.0000000000009 1.0000000180025095e-35 1.0000000180025095e-35 368.25000000000006 -7357.4999999999991 19.500000000000004 1.0000000180025095e-35 38730.000000000007 -2619.9999999999995 4.5000000000000009 9.5000000000000018
decision_type=2 2 2 2 2 2 2 2 2 2 2 2 2 2 2 2 2 2 2 2 2 2 2 2 2 2 2 2 2 2
left_child=1 2 3 4 6 8 7 10 9 18 -1 12 13 14 21 20 19 -10 -6 24 22 27 -3 -24 25 -12 28 -2 29 -15
right_child=11 15 -4 -5 5 -7 -8 -9 17 -11 16 -13 -14 26 -16 -17 -18 -19 -20 -21 -22 -23 23 -25 -26 -27 -28 -29 -30 -31
leaf_value=0.05923564233230532 -0.16434050887162047 0.047952084259470056 0.26457263505923906 0.21770863040361485 -0.033052055285210456 0.077027801452874939 0.16907471343461203 0.11920571102021249 0.021632461199686506 0.1520005754380345 -0.05834525562513998 0.089496504634325486 0.073959808610429112 0.016438395720183543 0.045095262979718248 0.080558868855699434 -0.0091540304488748666 -0.11345357744471214 0.062458831937719228 0.026754962328566997 -0.11805242487889306 -0.16622239602101629 -0.074986194400794931 0.010174660264361167 0.026605411547723709 0.089358462267874694 0.10416526733917118 -0.013783645698781127 0.046645052097336992 -0.18304930588215623
leaf_weight=8.4033256918191892 3.0526758879423168 44.892808720469475 2.5361219197511664 3.2345875278115264 178.81028984487057 15.467776309698818 2.5289937406778327 4.2754904329776755 81.857679948210716 3.1250491365790358 315.76004158705473 52.160575620830059 86.014303650707006 5.6927439421415311 23.787044156342745 20.92637513205409 51.715091541409492 4.6955897584557524 9.1523660123348218 11.637379027903078 4.0827436968684188 4.1119373738765708 10.07012492418289 87.780550353229046 9.2811037153005582 3.0034361183643332 16.125680275261402 27.11843903362751 55.37582216411829 2.6007047668099403
leaf_count=39 18 285 14 17 1205 133 11 18 452 19 3022 728 1147 56 260 235 338 33 49 80 19 25 52 509 56 23 202 172 670 25
internal_value=0 -0.0162602 -0.02508 -0.026125 -0.0272521 -0.00830372 -0.0409115 -0.0422257 -0.0130577 -0.0254511 -0.0439521 0.0522525 0.0435752 0.0246182 -0.00837406 0.0208316 -0.0461675 0.0143039 -0.0284014 -0.0518027 0.0123189 -0.0454734 0.0160478 0.00141049 -0.0545895 -0.0569536 0.048628 -0.0290168 0.0345619 -0.046118
internal_weight=0 873.237 705.484 702.948 699.714 293.109 406.605 404.076 277.641 191.088 399.8 276.04 223.879 137.865 58.0701 167.753 391.397 86.5533 187.963 339.682 146.826 34.2831 142.743 97.8507 328.045 318.763 79.795 30.1711 63.6693 8.29345
internal_count=9912 6609 5509 5495 5478 1891 3587 3576 1758 1273 3558 3303 2575 1428 475 1100 3519 485 1254 3181 865 215 846 561 3101 3045 953 190 751 81
is_linear=0
shrinkage=0.1


Tree=24
num_leaves=31
num_cat=0
split_feature=6 13 3 83 11 18 136 44 22 220 0 34 19 22 18 11 216 11 6 20 0 13 11 3 18 58 1 14 3 261
split_gain=84.277 22.3226 20.1711 17.8545 14.2325 13.142 8.5409 7.78093 7.7989 8.75893 7.63835 7.38457 9.59545 13.8705 7.25106 8.01301 8.25841 6.49473 9.12528 7.4673 6.40459 6.40375 6.2513 7.06355 6.05399 6.14882 5.50096 5.39893 8.0273 5.35798
threshold=1393.7500000000002 10462.500000000002 5843.2500000000009 1.0000000180025095e-35 153.75000000000003 13.500000000000002 1.0000000180025095e-35 1.0000000180025095e-35 102115.00000000001 1.0000000180025095e-35 22.500000000000004 1.0000000180025095e-35 1.0000000180025095e-35 -1972.4999999999998 2.5000000000000004 6923.5000000000009 1.0000000180025095e-35 4666.2500000000009 5780.7500000000009 14124.250000000002 41.500000000000007 105940.00000000001 1270.2500000000002 22005.250000000004 6.5000000000000009 1.0000000180025095e-35 4.5000000000000009 2.5000000000000004 4045.2500000000005 1.0000000180025095e-35
decision_type=2 2 2 2 2 2 2 2 2 2 2 2 2 2 2 2 2 2 2 2 2 2 2 2 2 2 2 2 2 2
left_child=1 3 5 4 29 21 10 8 9 14 -6 12 24 -14 -3 16 -16 18 -7 -20 -21 27 23 -4 25 26 -12 -2 -29 -1
right_child=2 7 22 -5 6 17 -8 -9 -10 -11 11 -13 13 -15 15 -17 -18 -19 19 20 -22 -23 -24 -25 -26 -27 -28 28 -30 -31
leaf_value=-0.049129609339322138 -0.010621324086530553 0.067316461710858436 -0.043777648376639361 0.19864596736339579 -0.07183631108723057 -0.11313792249546978 0.14153961468242746 -0.14358271316413351 0.1116453609321422 -0.11415614530551813 -0.044928351526935723 0.092203375022259879 0.013625141369161032 -0.078315861392356231 0.003958543426653304 0.10055976872910473 -0.15183826425883534 0.065655099585798224 0.11883900744854059 -0.10896148906811261 0.067682321264296477 0.11536630348846971 0.074626881154329111 0.097734950065505422 0.022520044960862868 0.1227847743742696 -0.0062206391114279121 0.055107094885994003 -0.090444163488053481 0.075795842092873961
leaf_weight=247.47503682225943 119.08966800570488 25.578113175928593 9.8178160861134511 3.4572980627417556 24.212276853621006 5.1915783435106304 3.4021577835082999 2.9178274646401396 8.9365828894078714 5.0456170216202727 51.563331142067909 6.4659098386764517 24.735130995512009 48.745236419141293 74.952824294567108 8.2373831123113614 3.5641420483589163 68.733280494809151 6.7314280942082396 4.2286164090037328 3.9886060506105423 4.9010592475533477 128.86392399668694 5.504986982792615 56.614198379218578 3.1860597133636466 127.49866328388453 28.014745771884918 4.3817628175020209 3.4814968332648268
leaf_count=2555 745 186 88 17 206 38 17 18 106 24 428 39 139 433 444 72 17 790 70 37 38 52 1915 60 316 15 792 191 35 29
internal_value=0 -0.0198405 0.0377649 -0.0279501 -0.0292615 0.0203152 -0.016124 0.0178631 0.0215925 0.0147363 -0.0176878 -0.0135754 -0.0157652 -0.0473665 0.0205258 0.00673027 -0.00311358 0.0510218 0.00108209 0.04075 -0.0232193 0.0028649 0.0674469 0.00706325 -0.00604375 -0.0149169 -0.0173671 -0.00077488 0.0354207 -0.0473965
internal_weight=0 730.069 389.447 600.837 597.379 245.261 346.423 129.232 126.315 117.378 343.021 318.809 312.343 73.4804 112.332 86.7543 78.517 88.8735 20.1402 14.9487 8.21722 156.387 144.187 15.3228 238.862 182.248 179.062 151.486 32.3965 250.957
internal_count=9912 5853 4059 4986 4969 1996 2385 867 849 743 2368 2162 2123 572 719 533 461 973 183 145 75 1023 2063 148 1551 1235 1220 971 226 2584
is_linear=0
shrinkage=0.1


Tree=25
num_leaves=31
num_cat=0
split_feature=6 165 3 13 83 211 11 18 11 136 256 19 190 259 19 22 221 11 11 0 225 13 11 3 11 6 8 9 1 21
split_gain=70.7509 19.086 18.2321 18.0185 14.4933 12.8386 12.817 11.5717 8.24408 7.36559 7.19959 7.06623 6.84076 6.71733 8.09429 9.82744 6.64288 6.29936 6.95973 6.14431 6.9493 6.13925 5.72058 6.03919 5.26235 6.39092 4.93066 7.71194 4.88984 4.9454
threshold=1393.7500000000002 1.0000000180025095e-35 5843.2500000000009 10462.500000000002 1.0000000180025095e-35 1.0000000180025095e-35 153.75000000000003 15.500000000000002 2589.5000000000005 1.0000000180025095e-35 1.0000000180025095e-35 15.500000000000002 1.0000000180025095e-35 1.0000000180025095e-35 1.0000000180025095e-35 -1972.4999999999998 1.0000000180025095e-35 324.75000000000006 6923.5000000000009 49.500000000000007 1.0000000180025095e-35 105940.00000000001 1270.2500000000002 22005.250000000004 9457.7500000000018 5686.2500000000009 5.5000000000000009 1010.2500000000001 4.5000000000000009 -542.74999999999989
decision_type=2 2 2 2 2 2 2 2 2 2 2 2 2 2 2 2 2 2 2 2 2 2 2 2 2 2 2 2 2 2
left_child=1 3 7 4 5 6 -1 10 -9 13 16 12 17 14 19 26 21 -5 -19 28 -21 24 23 -4 -2 -26 27 -16 -8 -30
right_child=2 -3 22 11 -6 -7 9 8 -10 -11 -12 -13 -14 -15 15 -17 -18 18 -20 20 -22 -23 -24 -25 25 -27 -28 -29 29 -31
leaf_value=-0.046844568637485179 -0.0075909668050317611 0.22827291704725461 -0.038484161215939075 0.036168780275583311 0.17574489494362194 0.15188309142014778 -0.037546856267820242 -0.06988296077975438 0.066706457926692539 0.13261554184838217 0.15742254659853067 0.076904596317463478 0.13469865503441841 0.05874433260055844 0.025177380616546743 -0.074749384075280464 0.12653866717797199 -0.026733014629221188 0.074568604889716408 0.04468814981694192 -0.098231741139392453 0.11242674393468462 0.071753921981328975 0.094996376691997175 -0.072318747465443617 0.11091282091260535 0.093926999840236294 -0.10296127079892843 -0.05582985118730182 0.0011219116815854593
leaf_weight=240.39431523531675 156.71997579559684 3.1257557049393645 10.038877066224812 34.436504513025284 3.5134388245642176 3.9420862868428221 80.85274763405323 4.7912485972046843 56.850501906126738 3.2746295668184748 3.0801657401025286 16.072578176856041 3.9743028804659835 11.00304142385721 13.467635780572897 50.566362340003252 4.2613826096057883 63.59213150292635 7.5916668102145186 29.324100941419601 3.8486904650926581 4.7354187853634349 121.03191429004073 5.117412567138671 2.5187590271234495 7.7932963296771049 4.7031165547668925 7.2119729816913596 17.559476427733898 115.78178053349257
leaf_count=2572 1046 21 88 229 17 20 654 33 689 17 22 193 25 65 73 474 30 344 66 154 19 57 1915 60 23 96 28 40 98 744
internal_value=0 -0.0182897 0.03526 -0.0193735 -0.0267484 -0.027971 -0.0291977 0.0187187 0.0560897 -0.0166316 0.00585717 0.0149841 0.00590312 -0.0180935 -0.0207084 -0.0492636 0.00320507 0.00105678 -0.0159293 -0.0119411 0.0281067 0.000145281 0.0645013 0.00658459 -0.00303794 0.0661578 0.00150794 -0.0195107 -0.0181434 -0.00637797
internal_weight=0 714.236 376.939 711.111 585.443 581.93 577.988 240.751 61.6418 337.594 179.109 125.667 109.595 334.319 323.316 75.9491 176.029 105.62 71.1838 247.367 33.1728 171.767 136.188 15.1563 167.032 10.3121 25.3827 20.6796 214.194 133.341
internal_count=9912 5853 4059 5832 4975 4958 4938 1996 722 2366 1274 857 664 2349 2284 615 1252 639 410 1669 173 1222 2063 148 1165 119 141 113 1496 842
is_linear=0
shrinkage=0.1


Tree=26
num_leaves=31
num_cat=0
split_feature=18 81 1 3 268 127 261 249 221 58 256 12 190 259 136 9 3 139 76 20 22 44 34 14 13 9 15 211 0 6
split_gain=59.3143 21.5894 17.3585 16.1101 14.7482 14.8715 13.0406 13.3831 12.8935 13.0632 13.1372 12.2932 11.9756 10.0929 9.09201 8.20036 8.10801 8.00574 7.6348 7.04645 6.9397 9.17085 6.96278 8.04952 8.57127 7.78303 6.71864 6.65972 5.85082 5.84243
threshold=9.5000000000000018 1.0000000180025095e-35 11.500000000000002 3292.5000000000005 1.0000000180025095e-35 1.0000000180025095e-35 1.0000000180025095e-35 1.0000000180025095e-35 1.0000000180025095e-35 1.0000000180025095e-35 1.0000000180025095e-35 10.500000000000002 1.0000000180025095e-35 1.0000000180025095e-35 1.0000000180025095e-35 7002.0000000000009 11493.000000000002 1.0000000180025095e-35 1.0000000180025095e-35 -1314.9999999999998 102115.00000000001 1.0000000180025095e-35 1.0000000180025095e-35 4.5000000000000009 101427.50000000001 44.750000000000007 1012.5000000000001 1.0000000180025095e-35 34.500000000000007 5232.7500000000009
decision_type=2 2 2 2 2 2 2 2 2 2 2 2 2 2 2 2 2 2 2 2 2 2 2 2 2 2 2 2 2 2
left_child=1 2 4 15 5 6 7 8 9 10 12 16 13 14 17 19 27 18 20 -2 21 22 23 24 -1 -24 -15 -4 -17 -5
right_child=3 -3 11 29 -6 -7 -8 -9 -10 -11 -12 -13 -14 26 -16 28 -18 -19 -20 -21 -22 -23 25 -25 -26 -27 -28 -29 -30 -31
leaf_value=-0.050749410194664515 -0.12295030528621452 0.20703538480658065 -0.0046326581291632014 0.032111088133446916 0.15982889162009187 0.16740574562632346 0.073378146312342227 0.14674051087297518 0.12834275875989989 0.13248409126143415 0.19663974591670474 0.10604720803546097 0.056193638539497021 -0.0063553135327239626 0.15984072259749602 -0.0086882246658992086 0.096575725171630877 0.12810860303795579 0.12786192574300681 0.0054413777240645547 0.071947091022175599 0.10697612510877008 0.1632334180857056 0.018282894545109438 -0.25321697456796577 -0.032599754084469364 0.12316116755220929 0.13885446761169554 0.084535153730131568 0.072021703201938014
leaf_weight=430.37027333676815 4.4456715285778037 4.3555148914456359 181.16083543375134 55.458858154714108 4.2557630762457839 3.9040147662162772 12.281720839440821 4.2085351198911658 4.9483627416193476 4.6786050200462332 2.4287920892238608 12.160134624689816 13.568757206201552 13.512218136340381 2.2232510559260836 9.5087876394391042 8.7262242622673494 2.7230676747858515 2.5751515403389922 111.0911485478282 5.0368035696446887 3.8823715299367896 3.268807150423525 17.068142421543598 2.1011133417487136 5.3526117093861103 5.692681159824132 3.293479122221469 23.057073414325714 108.31627989187837
leaf_count=3998 25 27 1210 625 28 21 85 19 32 24 14 137 93 100 15 106 94 16 14 775 65 26 20 121 16 34 35 19 271 1847
